type,x_0,x_1,x_2,x_3,x_4,x_5,x_6,x_7,x_8,x_9,x_10,x_11,x_12,x_13,x_14,x_15,x_16,x_17,x_18,x_19,x_20,x_21,x_22,x_23,x_24,x_25,x_26,x_27,x_28,x_29,x_30,x_31,x_32,x_33,x_34,x_35,x_36,x_37,x_38,x_39,x_40,x_41,x_42,x_43,x_44,x_45,x_46,x_47,x_48,x_49,x_50,x_51,x_52,x_53,x_54,x_55,x_56,x_57,x_58,x_59,x_60,x_61,x_62,x_63,x_64,x_65,x_66,x_67,x_68,x_69,x_70,x_71,x_72,x_73,x_74,x_75,x_76,x_77,x_78,x_79,x_80,x_81,x_82,x_83,x_84,x_85,x_86,x_87,x_88,x_89,x_90,x_91,x_92,x_93,x_94,x_95,x_96,x_97,x_98,x_99,x_100,x_101,x_102,x_103,x_104,x_105,x_106,x_107,x_108,x_109,x_110,x_111,x_112,x_113,x_114,x_115,x_116,x_117,x_118,x_119,x_120,x_121,x_122,x_123,x_124,x_125,x_126,x_127
018433E8E815D9D2065E57B759202EDC,-0.2516111433506012,0.12999704480171204,0.1564004272222519,0.4140295684337616,-0.35973548889160156,-0.26147475838661194,-0.15682487189769745,0.5044304132461548,-0.0073976218700408936,0.20183449983596802,-0.35733914375305176,-0.16063560545444489,0.1305696815252304,0.7548636198043823,1.0643458366394043,-0.09163511544466019,0.18395911157131195,-0.09897681325674057,0.43900352716445923,0.055867381393909454,0.07795245200395584,0.3889421224594116,0.10203836858272552,0.9245505332946777,0.4246436059474945,0.348057359457016,-0.2925010919570923,-0.17586098611354828,-0.6260841488838196,-0.13085059821605682,-0.04661543667316437,0.015859955921769142,-0.504274308681488,-0.2345874309539795,0.4869644343852997,-0.2562337815761566,-0.4352318048477173,0.6520950794219971,-0.4184954762458801,-0.04280189052224159,0.3058308959007263,0.9272962808609009,-0.30068132281303406,-0.7662748694419861,-0.325776606798172,-0.37365972995758057,0.07605379074811935,-0.6523261666297913,0.347976416349411,0.11121468991041183,0.6447357535362244,0.9022048711776733,0.3962545692920685,-0.19290587306022644,-0.1072780042886734,-0.0015872970689088106,-0.1857958734035492,-0.10255348682403564,0.268136203289032,-0.4239340126514435,0.006220357958227396,-0.18422648310661316,0.5577123165130615,0.30059176683425903,0.28078538179397583,-0.3323694169521332,0.3171408772468567,-0.06731287389993668,0.29296067357063293,0.22320805490016937,0.3130074143409729,-0.029596567153930664,0.5725523233413696,-0.18637822568416595,-0.42963480949401855,0.3086317777633667,-0.0019054316217079759,-0.6864101886749268,0.29287606477737427,0.6010392904281616,-0.3429947793483734,0.5347157120704651,0.1800968050956726,-0.072017602622509,-0.4007646143436432,0.09087327867746353,0.7422352433204651,-0.20928813517093658,0.03609028086066246,-0.7094987630844116,0.34886571764945984,-0.5460281372070312,0.08533387631177902,0.020807942375540733,-0.7196049690246582,-0.6703880429267883,-0.2140890657901764,0.9869441986083984,0.1390141397714615,0.40793052315711975,0.2384718954563141,-0.02508033998310566,0.9958632588386536,0.5759770274162292,0.08389859646558762,0.0319276824593544,-0.13534073531627655,0.11162868142127991,-0.2504725158214569,-0.9083239436149597,-0.17505627870559692,-0.29714012145996094,0.5585325956344604,0.29673492908477783,-0.6037678718566895,-0.49632740020751953,-0.0015932706883177161,-0.6261891722679138,0.3546470105648041,-0.2506876289844513,-0.42115235328674316,0.1913103610277176,0.2245819866657257,0.5282081961631775,-0.25060778856277466,0.2392667680978775,0.33058440685272217,-0.7721908688545227
02B2D905A72C4BB2ABFC278B8CA7F722,-0.18901728093624115,-0.050755154341459274,-0.03976276144385338,-0.01935724727809429,-0.3079697787761688,-0.15241867303848267,0.1438271701335907,0.3304782509803772,0.24730288982391357,0.0735316351056099,-0.09227301925420761,-0.33380019664764404,0.23895828425884247,0.31993603706359863,0.3030849099159241,-0.48647889494895935,0.0708523839712143,0.1654403656721115,0.1677127331495285,0.1965124011039734,-0.12364906072616577,0.39544281363487244,0.12905657291412354,0.5222987532615662,0.16207146644592285,0.33472079038619995,-0.0939372107386589,0.0912679061293602,-0.40909382700920105,0.016161546111106873,-0.2777116596698761,-0.36494705080986023,0.015320549719035625,-0.02782486379146576,0.09118838608264923,0.09557933360338211,-0.19201581180095673,0.37374162673950195,0.06082099676132202,0.015964606776833534,0.1874644011259079,0.43479716777801514,-0.26537632942199707,-0.3036457896232605,-0.09551595151424408,-0.28518936038017273,0.13866929709911346,-0.335306316614151,0.22098609805107117,0.09809331595897675,0.2216496467590332,0.5479979515075684,0.24817334115505219,0.21615241467952728,-0.011295553296804428,0.05153380334377289,-0.14665254950523376,-0.03854619711637497,0.2808387577533722,-0.1560155302286148,-0.06163780018687248,-0.2664535641670227,0.4316723942756653,0.45579180121421814,-0.04370742663741112,-0.0662805438041687,0.1772036999464035,-0.18562807142734528,0.16782692074775696,0.31792640686035156,0.2069157212972641,0.09196720272302628,0.26728904247283936,-0.038035839796066284,-0.12945163249969482,0.39427804946899414,0.07049204409122467,-0.1479489654302597,0.19948545098304749,0.34435755014419556,-0.15528824925422668,-0.03763413429260254,0.06273091584444046,0.12624214589595795,-0.3244568109512329,0.26806482672691345,0.4340648055076599,-0.010324036702513695,0.10017820447683334,-0.35090360045433044,-0.024859225377440453,-0.33202603459358215,0.14197422564029694,0.060959331691265106,-0.3316374123096466,-0.0520661287009716,-0.2238558977842331,0.35308587551116943,0.1400371640920639,0.05251616612076759,0.1631190925836563,0.05261487886309624,0.07962249964475632,0.22200582921504974,-0.2155589461326599,0.04821088910102844,0.009937552735209465,-0.187197744846344,-0.09895455837249756,-0.41690129041671753,-0.10935098677873611,-0.21715795993804932,0.20927752554416656,0.30568698048591614,-0.11700057983398438,-0.4346972405910492,-0.05786000192165375,-0.30733898282051086,-0.02594584785401821,-0.32526472210884094,-0.14179369807243347,-0.1245419830083847,-0.1715325564146042,0.43482744693756104,-0.14968621730804443,0.18719549477100372,0.04180667921900749,-0.40754419565200806
109CD896F8E13F925584DBBAD400B338,0.03141816705465317,0.5382351875305176,-0.1527831256389618,-0.4579434096813202,-0.650825023651123,-0.511634886264801,0.44218021631240845,0.22535379230976105,0.4408102333545685,-0.1917906552553177,0.7302268147468567,-0.12484386563301086,-0.2746642827987671,-0.44521480798721313,-0.24989981949329376,-1.775396466255188,0.17164510488510132,0.6459600329399109,0.6599423885345459,1.4629522562026978,0.05659473314881325,-0.1677217334508896,0.707602322101593,1.318168044090271,0.7793202996253967,0.60195392370224,-0.4993416965007782,0.4165823757648468,-0.6489913463592529,0.14972767233848572,-0.3154369294643402,-0.39811229705810547,0.8277904391288757,0.498762845993042,0.1052180603146553,0.10005366802215576,-0.6195418238639832,0.24641457200050354,0.33198636770248413,-0.056661516427993774,0.3443160355091095,0.528022289276123,-0.6768973469734192,-0.13955283164978027,-0.34855809807777405,-0.6310274600982666,-0.11539701372385025,-0.44503816962242126,-0.006618516054004431,-0.017320945858955383,0.3146872818470001,1.5639690160751343,0.9093323945999146,1.5093755722045898,0.29736796021461487,0.29624664783477783,0.2855696976184845,0.1791631579399109,1.1329256296157837,0.3758353590965271,-0.02271275967359543,-1.0270241498947144,0.8812015652656555,0.5533245205879211,0.4439447224140167,0.2572445869445801,0.10226833075284958,-1.0009552240371704,-0.009451828896999359,1.0753110647201538,1.5223088264465332,0.5552664399147034,0.5694032311439514,0.45319104194641113,-0.4341752529144287,0.7563846707344055,0.1748800426721573,-0.047475676983594894,-0.2762104868888855,0.03320116177201271,-0.1485876888036728,-0.27088889479637146,0.28256064653396606,0.5279079675674438,-0.5204426050186157,0.37618812918663025,1.0486737489700317,0.2457582950592041,0.7821940183639526,-0.29388606548309326,-0.6616145968437195,-0.039910491555929184,0.3711487650871277,0.13384480774402618,0.2668512761592865,1.217258334159851,0.36553871631622314,-0.17699888348579407,0.12426383048295975,-0.6413692831993103,-0.23403137922286987,-0.6817191243171692,-0.4741904139518738,0.012239063158631325,-0.734819769859314,0.036467526108026505,0.4705732464790344,-0.5559913516044617,-0.2021889090538025,-0.30927032232284546,-1.0310547351837158,-0.6010667085647583,0.646632730960846,0.7943217158317566,1.0259782075881958,-1.0384938716888428,0.41123369336128235,0.23734930157661438,-0.5261310935020447,-0.941657543182373,-0.8984084725379944,0.1141800731420517,-0.3725828230381012,0.8710200190544128,0.39878448843955994,0.11144942045211792,-0.2541221082210541,-1.5232566595077515
1A4D58E281103FEA2A4CCBFAB93F74D2,-0.24105505645275116,0.16115880012512207,0.15176250040531158,0.3611561059951782,-0.40706667304039,-0.2657166123390198,-0.2410680055618286,0.5141169428825378,0.022667603567242622,0.16279703378677368,-0.3629717230796814,-0.14594151079654694,0.15301433205604553,0.7611001133918762,1.0744584798812866,-0.02484847977757454,0.1886914223432541,-0.11964362859725952,0.4471728503704071,0.06706594675779343,0.049622759222984314,0.4007081389427185,0.10562052577733994,0.9168927073478699,0.42843925952911377,0.3162649869918823,-0.2653907239437103,-0.19512531161308289,-0.6931931972503662,-0.1571911871433258,-0.027466077357530594,-0.028380248695611954,-0.5377259850502014,-0.2462831735610962,0.5210494995117188,-0.22614935040473938,-0.4300540089607239,0.6158686876296997,-0.4351988732814789,-0.06380827724933624,0.31867173314094543,0.9561075568199158,-0.2705930769443512,-0.7376016974449158,-0.3136442303657532,-0.3899792432785034,0.09021419286727905,-0.6394266486167908,0.3173587918281555,0.15078623592853546,0.6980634927749634,0.9184696674346924,0.45956939458847046,-0.2006531059741974,-0.14356863498687744,-0.009390067309141159,-0.1591956913471222,-0.11690966784954071,0.29367631673812866,-0.4320458471775055,0.022867754101753235,-0.20334014296531677,0.5420160889625549,0.2572828233242035,0.23066446185112,-0.3087269961833954,0.32848742604255676,-0.06519853323698044,0.3314990997314453,0.19959291815757751,0.2835697531700134,-0.07972397655248642,0.5576034188270569,-0.1997852772474289,-0.4336538314819336,0.3134803771972656,0.007513226475566626,-0.70414799451828,0.2386004626750946,0.5883797407150269,-0.33173447847366333,0.5146077871322632,0.21816840767860413,-0.08327603340148926,-0.40038132667541504,0.0669945701956749,0.700325071811676,-0.23989708721637726,0.03617437556385994,-0.7186294794082642,0.31461459398269653,-0.5372518301010132,0.05965401232242584,-0.02527383714914322,-0.7662482857704163,-0.7173964381217957,-0.19894851744174957,1.0034534931182861,0.1780586987733841,0.445064514875412,0.25888580083847046,0.0077773467637598515,1.033423662185669,0.5522353053092957,0.03017415665090084,0.08360684663057327,-0.16178494691848755,0.12680383026599884,-0.22380973398685455,-0.9440678954124451,-0.16428446769714355,-0.30385443568229675,0.5531641840934753,0.3247826397418976,-0.6018182635307312,-0.5114731788635254,-0.025285623967647552,-0.6500115394592285,0.344076544046402,-0.22751222550868988,-0.3687378168106079,0.17722177505493164,0.17723619937896729,0.5469629764556885,-0.2280084788799286,0.21804052591323853,0.2994868755340576,-0.7568724751472473
1F8ADE068BA6FBFE8605E0946BF2D79F,-0.1907699853181839,-0.0647376999258995,-0.06410108506679535,-0.08477137982845306,-0.3659951388835907,-0.15287843346595764,0.21642443537712097,0.3372378349304199,0.3034835457801819,0.11590704321861267,-0.04684417322278023,-0.3476344048976898,0.24090918898582458,0.28764310479164124,0.25147539377212524,-0.5469117760658264,0.04334021732211113,0.17313309013843536,0.11561885476112366,0.2109401971101761,-0.1730547845363617,0.4134550392627716,0.1796015202999115,0.49572649598121643,0.17506925761699677,0.3571426570415497,-0.0904281958937645,0.148142009973526,-0.3829129636287689,0.040008410811424255,-0.3258383274078369,-0.4034527838230133,0.09924401342868805,-0.03425042703747749,0.07466644048690796,0.13627028465270996,-0.19856317341327667,0.34050077199935913,0.11418606340885162,0.06095543131232262,0.18249019980430603,0.44189953804016113,-0.28347450494766235,-0.27105873823165894,-0.13892994821071625,-0.27921804785728455,0.15526385605335236,-0.35163596272468567,0.20418380200862885,0.09402558952569962,0.19861069321632385,0.4945642054080963,0.2531106472015381,0.28615668416023254,-0.017373638227581978,0.06755709648132324,-0.13940486311912537,0.001342841307632625,0.23242150247097015,-0.1749916970729828,-0.07587534934282303,-0.25972387194633484,0.451364666223526,0.5067392587661743,-0.05902973935008049,-0.03140357509255409,0.1484166830778122,-0.18363545835018158,0.12342266738414764,0.3506317436695099,0.23808406293392181,0.13868537545204163,0.2879790663719177,-0.014562658965587616,-0.10146818310022354,0.3917640149593353,0.06795547157526016,-0.11831451952457428,0.1847643256187439,0.34203410148620605,-0.15174902975559235,-0.090499147772789,0.06571779400110245,0.1777753233909607,-0.34870442748069763,0.29635563492774963,0.41799572110176086,0.0011492574121803045,0.06112036854028702,-0.31696590781211853,-0.06646516919136047,-0.2893652319908142,0.19791029393672943,0.11918111145496368,-0.3514699339866638,-0.018768111243844032,-0.2597360908985138,0.26294609904289246,0.15124154090881348,-0.007963907904922962,0.16080409288406372,0.0762348398566246,0.018919972702860832,0.2277875691652298,-0.18424367904663086,0.0345577672123909,0.08258914202451706,-0.24513161182403564,-0.051654208451509476,-0.4024202227592468,-0.07009697705507278,-0.24195703864097595,0.1873890906572342,0.31579869985580444,-0.10527817159891129,-0.4509102702140808,-0.0641777366399765,-0.35103121399879456,-0.06076415628194809,-0.4028923809528351,-0.17154939472675323,-0.14327479898929596,-0.2515619993209839,0.42902451753616333,-0.1564389020204544,0.16337281465530396,-0.004634225275367498,-0.37884849309921265
1FA011E6A692EE95452C626E61B5263A,-0.41544651985168457,-0.6559290885925293,-0.08330433070659637,-0.2233637571334839,-0.5294650197029114,0.28526294231414795,0.33857226371765137,0.4393138587474823,0.724536657333374,0.2134055495262146,-0.6626503467559814,-1.0842483043670654,1.101667881011963,0.7701646685600281,0.24408629536628723,-0.5832716226577759,-0.3465370237827301,0.5038515329360962,-0.36491668224334717,-0.41043782234191895,-0.567994236946106,1.1917954683303833,-0.0034278281964361668,0.09429140388965607,-0.4576073884963989,0.618678867816925,0.4376889765262604,0.26292312145233154,-0.5324463248252869,0.0508350245654583,-0.9661000370979309,-1.313740611076355,-0.09920622408390045,-0.3350728154182434,-0.33037400245666504,0.6428395509719849,0.14002087712287903,0.7477811574935913,0.46115949749946594,0.1924484223127365,0.27653253078460693,0.40357592701911926,-0.2354423850774765,-0.24043236672878265,0.32410600781440735,-0.46513253450393677,0.5023834109306335,-0.26575416326522827,0.6013595461845398,0.45677450299263,0.056681517511606216,0.16834552586078644,0.05854371562600136,-0.09939821064472198,-0.1885339468717575,0.1583588719367981,-0.723299503326416,-0.16609007120132446,-0.15412622690200806,-0.5413707494735718,-0.28643617033958435,0.040878456085920334,0.4905197322368622,1.0665661096572876,-0.6763544678688049,0.007031520362943411,0.3045676350593567,0.209930881857872,0.6615234613418579,0.38213130831718445,-0.552534282207489,-0.04526340961456299,0.10685078054666519,-0.29002320766448975,0.19862626492977142,0.7194401621818542,0.08161622285842896,0.10204301029443741,0.6720840334892273,0.8062739372253418,0.047054484486579895,-0.6306641101837158,0.08887399733066559,0.2143256962299347,-0.43348297476768494,0.7150615453720093,0.5004854202270508,-0.024764342233538628,-0.3552146255970001,-0.4538303315639496,-0.09911796450614929,-0.8825861215591431,0.27157291769981384,0.20746906101703644,-0.7525591850280762,-0.39202412962913513,-1.1152933835983276,0.41140511631965637,0.39202114939689636,0.2242705225944519,0.7865487337112427,0.6550090909004211,-0.6096808910369873,0.03598200902342796,-0.38822147250175476,0.046724483370780945,-0.23633068799972534,-0.4558256268501282,-0.13540111482143402,-0.47211754322052,0.46115028858184814,0.12432777881622314,-0.06689013540744781,0.3378933370113373,-0.6282175779342651,-0.5429677963256836,-0.6202366948127747,-0.6942102909088135,-0.3273583948612213,-0.4839754104614258,0.6392943263053894,-1.0576587915420532,-0.33963125944137573,0.4629445970058441,-0.5661861896514893,0.5274068117141724,0.008296722546219826,0.3550330698490143
306D3ED0A7C899B5EF9D0E3C91F05193,-0.16143102943897247,-0.06027691438794136,-0.05575981363654137,-0.04504525661468506,-0.29408949613571167,-0.12665961682796478,0.15705589950084686,0.2745576798915863,0.24068577587604523,0.07205997407436371,-0.054127033799886703,-0.31824591755867004,0.24653778970241547,0.2758074402809143,0.2271297127008438,-0.46353679895401,0.042173393070697784,0.17800727486610413,0.13495619595050812,0.18957751989364624,-0.1258223056793213,0.36460626125335693,0.11280681192874908,0.4365752041339874,0.12273291498422623,0.28453803062438965,-0.056609418243169785,0.09407977014780045,-0.36072883009910583,0.020665615797042847,-0.2683522701263428,-0.3593236804008484,0.028303753584623337,-0.020410094410181046,0.04953795298933983,0.11839204281568527,-0.16725312173366547,0.3000430762767792,0.08849523961544037,0.02635481208562851,0.15210562944412231,0.37595248222351074,-0.26193225383758545,-0.24036814272403717,-0.0930805429816246,-0.24174495041370392,0.14626531302928925,-0.2690759003162384,0.1984822303056717,0.09447519481182098,0.144119530916214,0.44876906275749207,0.2053147852420807,0.20545539259910583,-0.02521214634180069,0.05914396792650223,-0.13591474294662476,-0.026018161326646805,0.22305408120155334,-0.12365128844976425,-0.07642785459756851,-0.22519579529762268,0.3710331320762634,0.42665570974349976,-0.07823976874351501,-0.034542400389909744,0.14942684769630432,-0.1734553873538971,0.15135589241981506,0.28440922498703003,0.18639303743839264,0.08122238516807556,0.20455098152160645,-0.027020834386348724,-0.09763235598802567,0.3552591800689697,0.07786010950803757,-0.10638197511434555,0.17800405621528625,0.2905076742172241,-0.14192508161067963,-0.09049500524997711,0.06842798739671707,0.12757344543933868,-0.28685036301612854,0.25681236386299133,0.38203367590904236,-0.0048693446442484856,0.07157601416110992,-0.2797497808933258,-0.034712448716163635,-0.2873537242412567,0.11732789129018784,0.07271310687065125,-0.29587647318840027,-0.015781737864017487,-0.22445115447044373,0.2696380913257599,0.11275812983512878,0.019626542925834656,0.16893354058265686,0.07378479093313217,-0.0011939321411773562,0.1938163787126541,-0.19713281095027924,0.05559299886226654,-0.0021788813173770905,-0.18942001461982727,-0.07874871045351028,-0.3506827652454376,-0.07899735122919083,-0.18381734192371368,0.1669812947511673,0.26813435554504395,-0.07789184898138046,-0.3935386836528778,-0.0508534274995327,-0.2743638753890991,-0.059289563447237015,-0.3157156705856323,-0.09730145335197449,-0.16141077876091003,-0.1800866276025772,0.37500715255737305,-0.1257505565881729,0.17240841686725616,0.03396143764257431,-0.3263339400291443
3628A4BDA272C7E73979A2A3051FA39B,0.0825572982430458,0.4628138542175293,-0.2510015368461609,-0.562053382396698,-0.5547824501991272,-0.512042760848999,0.4882015883922577,0.2559193968772888,0.43773654103279114,-0.16077713668346405,0.7074387669563293,-0.1387004852294922,-0.25847822427749634,-0.42852678894996643,-0.28562548756599426,-1.6467512845993042,0.1159234270453453,0.5801979303359985,0.6965841054916382,1.3543659448623657,-0.04163049906492233,-0.22588905692100525,0.6018196940422058,1.3175054788589478,0.7164334654808044,0.6577285528182983,-0.585228681564331,0.4118778705596924,-0.7353129982948303,0.2908841669559479,-0.2689579427242279,-0.2792743444442749,0.8453497290611267,0.43515557050704956,0.17798563838005066,0.034172601997852325,-0.5560426712036133,0.32389238476753235,0.2876918613910675,-0.0645640566945076,0.3353111743927002,0.5379137396812439,-0.5745288729667664,-0.019778195768594742,-0.4121498167514801,-0.6077786087989807,-0.10109882801771164,-0.501654863357544,-0.04669661447405815,-0.13250170648097992,0.33483976125717163,1.5203816890716553,0.9195170998573303,1.3928278684616089,0.21266721189022064,0.2388933151960373,0.27358606457710266,0.2603757083415985,1.0181187391281128,0.3009071946144104,0.04049992933869362,-1.1181906461715698,0.8302227258682251,0.4200039207935333,0.27783694863319397,0.12577050924301147,0.04464636743068695,-0.8889195919036865,-0.08080429583787918,1.020584225654602,1.4699749946594238,0.39222651720046997,0.54880690574646,0.35868313908576965,-0.4213564991950989,0.6930513381958008,0.2525365650653839,-0.18506167829036713,-0.21093018352985382,0.14590708911418915,-0.22591643035411835,-0.2642025351524353,0.10567637532949448,0.47718074917793274,-0.5647693276405334,0.4540770351886749,0.8371927738189697,0.23391646146774292,0.7643239498138428,-0.24002255499362946,-0.6791447997093201,-0.02251594327390194,0.28335335850715637,0.06656966358423233,0.31095069646835327,1.070341944694519,0.3311621844768524,-0.050608325749635696,0.058177486062049866,-0.7232656478881836,-0.23962606489658356,-0.5684273838996887,-0.27226072549819946,0.007668648846447468,-0.7041350603103638,0.0017934688366949558,0.5101819634437561,-0.6769951581954956,-0.06827464699745178,-0.4114508032798767,-0.9286256432533264,-0.6521703600883484,0.5149276852607727,0.7886238694190979,0.9291859269142151,-0.9616325497627258,0.2810719311237335,0.1165454313158989,-0.4786505401134491,-0.8856794834136963,-0.9719023704528809,0.092017263174057,-0.44983386993408203,0.938682496547699,0.3747994303703308,0.2092384397983551,-0.21861787140369415,-1.4794604778289795
3B53E66F34BEB3CD30E6A7DA457E86C8,-0.15827494859695435,-0.033223602920770645,-0.047810979187488556,-0.06538652628660202,-0.3038279414176941,-0.14850814640522003,0.16272325813770294,0.2679193317890167,0.22655238211154938,0.05855337157845497,-0.015641257166862488,-0.29066506028175354,0.19870495796203613,0.23541149497032166,0.2072354406118393,-0.5224578380584717,0.057985592633485794,0.1888851374387741,0.16287042200565338,0.23446932435035706,-0.10344448685646057,0.3256683945655823,0.14951767027378082,0.47763538360595703,0.1614711433649063,0.29926225543022156,-0.09376529604196548,0.10022518038749695,-0.3618490397930145,0.031156903132796288,-0.2650749385356903,-0.34366708993911743,0.06446335464715958,0.007757954765111208,0.056621283292770386,0.09870430827140808,-0.18760257959365845,0.3048957884311676,0.08260288089513779,0.009378642775118351,0.15124425292015076,0.3790954053401947,-0.2682396471500397,-0.23204727470874786,-0.0936666876077652,-0.27086591720581055,0.12354090064764023,-0.2811867296695709,0.18816931545734406,0.08669701963663101,0.1683081090450287,0.5092290639877319,0.23730996251106262,0.25742706656455994,-0.005438929423689842,0.07062038779258728,-0.10575814545154572,-0.009511841461062431,0.2714329659938812,-0.10309819132089615,-0.07248951494693756,-0.2627700865268707,0.38473549485206604,0.4205089807510376,-0.03965892270207405,-0.026387622579932213,0.14666010439395905,-0.22250701487064362,0.13046814501285553,0.32551783323287964,0.2528895139694214,0.10021379590034485,0.23110227286815643,-0.009036410599946976,-0.11386184394359589,0.3662385642528534,0.07155828177928925,-0.10734721273183823,0.1555105596780777,0.27587682008743286,-0.13841365277767181,-0.0802125632762909,0.06728509813547134,0.14264926314353943,-0.27918457984924316,0.24284879863262177,0.4073033332824707,0.012525783851742744,0.11830754578113556,-0.28440606594085693,-0.06219052895903587,-0.2569786012172699,0.12005873024463654,0.0588374137878418,-0.2607465386390686,0.04247012734413147,-0.1774517148733139,0.26122188568115234,0.11592042446136475,-0.00980394147336483,0.13600663840770721,0.024159476161003113,-0.009655768983066082,0.1748194843530655,-0.22287631034851074,0.04619850963354111,0.041018079966306686,-0.21527516841888428,-0.09606267511844635,-0.34777209162712097,-0.1225152462720871,-0.19866661727428436,0.18751372396945953,0.2930806577205658,-0.024726875126361847,-0.415872722864151,-0.02179480716586113,-0.2552049160003662,-0.07580850273370743,-0.334837406873703,-0.13845980167388916,-0.1266469806432724,-0.186391219496727,0.3965485692024231,-0.09702373296022415,0.16978415846824646,0.021049492061138153,-0.3887042701244354
3BD041EF488806C55FBC40B4AF24EABB,-0.18135643005371094,-0.039692919701337814,-0.0530615970492363,-0.04099544510245323,-0.3112320601940155,-0.15767483413219452,0.15145990252494812,0.29252058267593384,0.22555013000965118,0.06494684517383575,-0.056940097361803055,-0.3066630959510803,0.20982111990451813,0.27056506276130676,0.2592892050743103,-0.5043084025382996,0.0474185086786747,0.18957103788852692,0.1848408281803131,0.22066643834114075,-0.10445408523082733,0.35203540325164795,0.14334432780742645,0.4962807297706604,0.17901912331581116,0.31940120458602905,-0.08539528399705887,0.08865118771791458,-0.3810390532016754,0.03209817036986351,-0.2726902365684509,-0.3486595153808594,0.051516737788915634,-0.0050832126289606094,0.08281122893095016,0.08508159220218658,-0.18649587035179138,0.33318254351615906,0.07193593680858612,0.0008379115606658161,0.17498227953910828,0.41374847292900085,-0.2707290053367615,-0.2682674527168274,-0.10057072341442108,-0.2954857051372528,0.14053404331207275,-0.31184348464012146,0.1905040442943573,0.08990996330976486,0.19482986629009247,0.5262286067008972,0.243027463555336,0.2370091825723648,-0.00694030849263072,0.07203172892332077,-0.12650331854820251,-0.0036209668032824993,0.27830857038497925,-0.12368012219667435,-0.0730743408203125,-0.26573747396469116,0.40162792801856995,0.42574164271354675,-0.03875023126602173,-0.05300746485590935,0.1457047015428543,-0.21390512585639954,0.15338414907455444,0.344471275806427,0.23062753677368164,0.10016920417547226,0.25751039385795593,-0.014936115592718124,-0.13126523792743683,0.3902701735496521,0.07700280100107193,-0.13447532057762146,0.16829277575016022,0.31341752409935,-0.14277444779872894,-0.06212563440203667,0.06998290866613388,0.14385762810707092,-0.2888748049736023,0.24721254408359528,0.44032132625579834,0.002861939836293459,0.11498986184597015,-0.32365983724594116,-0.036440569907426834,-0.29561012983322144,0.11820345371961594,0.06567386537790298,-0.28437158465385437,-0.013524933718144894,-0.19158372282981873,0.3044678568840027,0.12977612018585205,0.02575511299073696,0.14514604210853577,0.04106689989566803,0.032324258238077164,0.19408291578292847,-0.22471992671489716,0.047563277184963226,0.033778224140405655,-0.19419772922992706,-0.09878741949796677,-0.3819776475429535,-0.12525905668735504,-0.21500562131404877,0.21187245845794678,0.29655563831329346,-0.061813872307538986,-0.4190554916858673,-0.027453267946839333,-0.2852175533771515,-0.053921621292829514,-0.34130415320396423,-0.13611386716365814,-0.12580250203609467,-0.1736355721950531,0.4241971969604492,-0.10324438661336899,0.16930384933948517,0.027447296306490898,-0.40442055463790894
42123D2493598C9AC9803FE1B92ED032,-0.18598932027816772,-0.03224264457821846,-0.05537065863609314,-0.04741574451327324,-0.3274022936820984,-0.16839982569217682,0.16208802163600922,0.29754379391670227,0.2376536875963211,0.0676707997918129,-0.046998266130685806,-0.31028711795806885,0.21072347462177277,0.2677682638168335,0.26306360960006714,-0.5416653752326965,0.05028782784938812,0.19943533837795258,0.20115438103675842,0.236562117934227,-0.1058686301112175,0.35519739985466003,0.15777182579040527,0.528795599937439,0.19268962740898132,0.33624255657196045,-0.09760792553424835,0.0904107466340065,-0.3992236256599426,0.038177717477083206,-0.28589728474617004,-0.36645132303237915,0.06005403399467468,0.002201288938522339,0.08397988229990005,0.08652613312005997,-0.20384864509105682,0.34310510754585266,0.06893151253461838,0.0006074924021959305,0.18372184038162231,0.42992454767227173,-0.28048741817474365,-0.28083375096321106,-0.10758794099092484,-0.31105804443359375,0.14044320583343506,-0.3249002993106842,0.19919820129871368,0.08806665986776352,0.19939178228378296,0.5606259107589722,0.25750499963760376,0.25958043336868286,-0.0024113873951137066,0.07169339060783386,-0.12801147997379303,-0.001528220484033227,0.2943739593029022,-0.11913133412599564,-0.08082106709480286,-0.28759628534317017,0.4260905981063843,0.4477822184562683,-0.029449084773659706,-0.04932328686118126,0.1493511199951172,-0.2355472892522812,0.1617060750722885,0.3665090501308441,0.2537466287612915,0.11251117289066315,0.27246975898742676,-0.009630504995584488,-0.13592560589313507,0.40980005264282227,0.08317628502845764,-0.14727351069450378,0.16654427349567413,0.31908878684043884,-0.14497722685337067,-0.06544458121061325,0.06978355348110199,0.15450608730316162,-0.30320191383361816,0.2577868103981018,0.4649975597858429,0.003771561896428466,0.1285117119550705,-0.33895373344421387,-0.04481899365782738,-0.30659219622612,0.12511514127254486,0.06403371691703796,-0.2895044684410095,0.0015587731031700969,-0.18959566950798035,0.3104240298271179,0.1305355578660965,0.022557325661182404,0.14281409978866577,0.03617330640554428,0.02667003683745861,0.19868294894695282,-0.2403973937034607,0.046321939677000046,0.03844539448618889,-0.20495182275772095,-0.10513089597225189,-0.40340736508369446,-0.13953055441379547,-0.23276492953300476,0.22079335153102875,0.31448304653167725,-0.05360826849937439,-0.4421924948692322,-0.021876120939850807,-0.2924606204032898,-0.06099507957696915,-0.3567660450935364,-0.1508072018623352,-0.12640565633773804,-0.17921742796897888,0.44790056347846985,-0.09955130517482758,0.17567069828510284,0.03094440884888172,-0.4384414553642273
457A4D1BD4B2661D75CB9CD9A6F9D136,-0.5184537172317505,-0.7541887760162354,-0.3367837965488434,-0.015360714867711067,-0.26640355587005615,-0.2460555136203766,0.5925969481468201,0.7640234231948853,0.4493466317653656,0.2545117139816284,-0.1922231763601303,-0.908767580986023,0.9276520609855652,1.007207989692688,0.47160905599594116,-0.6173999309539795,0.39662519097328186,0.1979064792394638,-0.07794620841741562,-0.06123353913426399,-0.5396509766578674,1.2616654634475708,-0.24693991243839264,0.2224625200033188,-0.17686472833156586,0.25792449712753296,0.13585378229618073,0.17398828268051147,-0.48248112201690674,0.017044074833393097,-0.5299047827720642,-0.9384366869926453,-0.08296948671340942,-0.17625467479228973,-0.13088858127593994,0.35838189721107483,-0.06018045172095299,0.3576297163963318,0.40014684200286865,0.19141645729541779,-0.043961334973573685,0.5258406400680542,-0.531513512134552,-0.44529545307159424,-0.16478103399276733,0.07037920504808426,0.6427223086357117,-0.27362531423568726,0.6141043901443481,0.1111738309264183,-0.3327260911464691,-0.06054801493883133,-0.24298512935638428,-0.046174291521310806,-0.211153045296669,-0.06859442591667175,-0.4119096100330353,-0.1700393706560135,0.06153968349099159,-0.3358954191207886,-0.21298731863498688,-0.09117123484611511,0.35802802443504333,1.0974910259246826,-0.7740631699562073,-0.1692906767129898,0.41703271865844727,-0.16089296340942383,0.08233611285686493,0.035639531910419464,-0.4229990839958191,0.014525736682116985,-0.049319516867399216,-0.27913710474967957,0.11287213861942291,0.5779034495353699,0.24593184888362885,0.1746031641960144,0.6526942849159241,0.5833137631416321,-0.555584192276001,-0.36026516556739807,-0.22322803735733032,0.23271919786930084,-0.4817348122596741,0.623273491859436,0.011983339674770832,0.0812235027551651,-0.18495233356952667,-0.36572691798210144,0.2950524389743805,-0.39531058073043823,0.06010476127266884,0.13369758427143097,-0.8428866267204285,-0.2385128140449524,-0.7267971634864807,0.6094307899475098,0.09162147343158722,0.19820183515548706,0.41184306144714355,0.8410254716873169,-0.1063983216881752,0.7479757070541382,-0.20810367166996002,0.23408964276313782,-0.30899766087532043,-0.4005979597568512,0.07377184182405472,-0.6517012119293213,0.5645267963409424,-0.2690403163433075,-0.2722913920879364,0.23789063096046448,-0.5317519307136536,-0.415153831243515,-0.2639014720916748,-0.9005734920501709,0.17868037521839142,-0.3316463232040405,0.43744102120399475,-0.5144926309585571,-0.9123536348342896,0.5032238960266113,-0.7476978898048401,0.3507639765739441,0.2079128473997116,0.10038240253925323
46745E29F15EEDFABBA7E080F6295200,-0.1596536934375763,-0.02365284413099289,-0.05553880333900452,-0.07076048851013184,-0.3109774887561798,-0.15763339400291443,0.17638996243476868,0.2782122492790222,0.23505103588104248,0.05762537568807602,-0.00048783569945953786,-0.28638756275177,0.18720312416553497,0.2160809189081192,0.202785462141037,-0.5409101843833923,0.06330689042806625,0.19335545599460602,0.16897031664848328,0.2544229030609131,-0.09728788584470749,0.3298322856426239,0.16077597439289093,0.4890710711479187,0.17721572518348694,0.30314192175865173,-0.09352626651525497,0.11117973178625107,-0.36660996079444885,0.032410118728876114,-0.2703312635421753,-0.3456306457519531,0.08441038429737091,0.01367148756980896,0.05680929869413376,0.10307776182889938,-0.18068566918373108,0.2935866117477417,0.10096047818660736,0.006742493249475956,0.16476818919181824,0.39183470606803894,-0.2788292169570923,-0.23568543791770935,-0.10187701880931854,-0.27741289138793945,0.1245633140206337,-0.2840348184108734,0.17695258557796478,0.08671225607395172,0.16554251313209534,0.5214124917984009,0.2517738342285156,0.2700924277305603,0.00913102924823761,0.08067069947719574,-0.09852863103151321,-8.761270873947069e-05,0.2861992120742798,-0.0945262610912323,-0.0716794803738594,-0.2789801061153412,0.39930054545402527,0.42059996724128723,-0.02857540361583233,-0.024282922968268394,0.14269565045833588,-0.23137669265270233,0.12844444811344147,0.35047826170921326,0.2711087465286255,0.12119461596012115,0.24196837842464447,-0.0012595440493896604,-0.11164730787277222,0.371806800365448,0.07301207631826401,-0.11162171512842178,0.15301130712032318,0.2814473509788513,-0.13659696280956268,-0.0864512249827385,0.06344005465507507,0.15641279518604279,-0.2925383448600769,0.24152517318725586,0.40639355778694153,0.017358530312776566,0.12822476029396057,-0.2853948473930359,-0.06619176268577576,-0.2531619668006897,0.1344601809978485,0.06096991151571274,-0.24512797594070435,0.05667906627058983,-0.16602270305156708,0.2545481026172638,0.11078120023012161,-0.013329843990504742,0.1197255328297615,0.015446468256413937,-0.006891794037073851,0.1733294576406479,-0.2305607944726944,0.042541682720184326,0.04896638169884682,-0.21183907985687256,-0.08972716331481934,-0.3497856855392456,-0.125461146235466,-0.2187711000442505,0.19016140699386597,0.29412949085235596,-0.016264095902442932,-0.42514967918395996,-0.010724077001214027,-0.2391020655632019,-0.08625733852386475,-0.34825634956359863,-0.1484440267086029,-0.11927223205566406,-0.19016461074352264,0.40689367055892944,-0.088083416223526,0.1594487875699997,0.004637761972844601,-0.4019612967967987
4CB3FCC942A346218B3B590BDBCB7DDD,-0.5722863078117371,-0.8148607015609741,-0.3550953269004822,0.028677312657237053,-0.27046748995780945,-0.2818487882614136,0.615922212600708,0.8435019254684448,0.45308032631874084,0.28888291120529175,-0.22190888226032257,-0.9599145650863647,0.9924371838569641,1.1362606287002563,0.5746351480484009,-0.5984769463539124,0.45732951164245605,0.16492535173892975,-0.07462785392999649,-0.09422942250967026,-0.5696452856063843,1.3682489395141602,-0.2926609516143799,0.23886850476264954,-0.17346718907356262,0.25563961267471313,0.1290612667798996,0.15882857143878937,-0.5206016898155212,9.107722144108266e-05,-0.535781741142273,-0.9655748605728149,-0.14446891844272614,-0.20426402986049652,-0.11005532741546631,0.3531593680381775,-0.07488074153661728,0.3825191557407379,0.3861410319805145,0.19857682287693024,-0.05617324635386467,0.5979720950126648,-0.5692278742790222,-0.510133683681488,-0.20165137946605682,0.0989304929971695,0.6959735155105591,-0.30911552906036377,0.6641613245010376,0.11148062348365784,-0.34815725684165955,-0.08267118781805038,-0.2802011966705322,-0.10651586949825287,-0.23883582651615143,-0.09261640906333923,-0.44249144196510315,-0.18651922047138214,0.04625016450881958,-0.38555705547332764,-0.22036856412887573,-0.07587451487779617,0.37048226594924927,1.1619808673858643,-0.8292664289474487,-0.2096218317747116,0.45652905106544495,-0.15570741891860962,0.07601456344127655,0.0003867124323733151,-0.4810437858104706,-0.005266811698675156,-0.0445903018116951,-0.3200397193431854,0.1052507534623146,0.600285530090332,0.2631654143333435,0.1531444638967514,0.7129065990447998,0.6382269859313965,-0.6260384321212769,-0.33560237288475037,-0.25028249621391296,0.22826255857944489,-0.512355625629425,0.6467090249061584,-0.008642338216304779,0.07052736729383469,-0.20793911814689636,-0.41289210319519043,0.36804795265197754,-0.4227515757083893,0.04424895718693733,0.13266991078853607,-0.9476999640464783,-0.32444214820861816,-0.7799001336097717,0.7104712724685669,0.08885923773050308,0.255372017621994,0.44345077872276306,0.9257872700691223,-0.02086954191327095,0.8525422811508179,-0.18476291000843048,0.2625490427017212,-0.35334017872810364,-0.39360693097114563,0.08186551183462143,-0.7374248504638672,0.6314042210578918,-0.2976144552230835,-0.2919478416442871,0.23638074100017548,-0.6233279705047607,-0.42380356788635254,-0.28102797269821167,-1.0055946111679077,0.2423667460680008,-0.33137544989585876,0.4648323059082031,-0.5142152905464172,-0.9724912047386169,0.5338968634605408,-0.8222934603691101,0.3715108335018158,0.2508043944835663,0.11032167822122574
5394B09CF2A0B3D1CAAECC46C0E502E3,-0.284023642539978,0.059247177094221115,0.13126645982265472,0.3342988193035126,-0.3000410199165344,-0.2632105350494385,-0.17011672258377075,0.4588930606842041,0.1225857064127922,0.18369261920452118,-0.4123453199863434,-0.16873839497566223,0.1704273372888565,0.6146882176399231,0.8985549211502075,-0.08839286118745804,0.1479429006576538,-0.06931046396493912,0.40645310282707214,0.0534069798886776,-0.008462265133857727,0.4270355999469757,0.05635541304945946,0.7375203371047974,0.28636571764945984,0.3811464011669159,-0.21667765080928802,-0.07768545299768448,-0.6031348705291748,-0.07024341076612473,-0.14273475110530853,-0.08465737104415894,-0.3966187834739685,-0.20609314739704132,0.40731745958328247,-0.1474391222000122,-0.4152449071407318,0.5398350358009338,-0.29822877049446106,0.008885438553988934,0.30372852087020874,0.8098008632659912,-0.17514735460281372,-0.6619564294815063,-0.2109922617673874,-0.3339444398880005,0.08073612302541733,-0.5178614854812622,0.31414273381233215,0.17073342204093933,0.5453101396560669,0.7070848941802979,0.3730805814266205,-0.11593495309352875,-0.1556825339794159,-0.03177161142230034,-0.23253583908081055,-0.03903822973370552,0.28638535737991333,-0.4132373034954071,-0.02632189728319645,-0.15978488326072693,0.44797083735466003,0.27082157135009766,0.18678216636180878,-0.2732072174549103,0.32421860098838806,-0.0178114864975214,0.32215264439582825,0.14334821701049805,0.15011681616306305,-0.044639065861701965,0.41956761479377747,-0.1861790120601654,-0.23290486633777618,0.30311569571495056,-0.053721752017736435,-0.5648561716079712,0.2926967144012451,0.4703230559825897,-0.31810975074768066,0.3990856111049652,0.12865684926509857,-0.09452565759420395,-0.4511317312717438,0.0661357194185257,0.6902281045913696,-0.23570117354393005,0.08368252962827682,-0.7007889747619629,0.2523140609264374,-0.513425886631012,0.11384289711713791,-0.04825464263558388,-0.7100388407707214,-0.6026853919029236,-0.2941485345363617,0.8777119517326355,0.21067608892917633,0.2839599549770355,0.19457174837589264,0.007813974283635616,0.7221082448959351,0.46594393253326416,-0.03745163604617119,0.06984663009643555,-0.1559721976518631,0.09237171709537506,-0.22762048244476318,-0.697341799736023,-0.09310492128133774,-0.29226985573768616,0.43740683794021606,0.36121582984924316,-0.5409191250801086,-0.4313133955001831,-0.008686075918376446,-0.5041622519493103,0.23460349440574646,-0.22206918895244598,-0.38999423384666443,0.15749521553516388,0.18321844935417175,0.4102220833301544,-0.2039949893951416,0.21368825435638428,0.23259124159812927,-0.6871780753135681
569797689D2F779668B107224D36BEB0,-0.0912453830242157,-0.019903093576431274,-0.026047393679618835,-0.027665838599205017,-0.1764947474002838,-0.07822822779417038,0.0918010026216507,0.15653131902217865,0.13628259301185608,0.029071826487779617,-0.021069778129458427,-0.1731879711151123,0.12382130324840546,0.1435166299343109,0.13115710020065308,-0.28765901923179626,0.03279115632176399,0.1080302819609642,0.09163610637187958,0.12808333337306976,-0.06315638870000839,0.19033341109752655,0.07781607657670975,0.27277785539627075,0.08346877247095108,0.1733371466398239,-0.0460275299847126,0.06118336319923401,-0.2118547260761261,0.01022451464086771,-0.15150196850299835,-0.20003974437713623,0.026640374213457108,-0.00868306402117014,0.030853265896439552,0.058803632855415344,-0.10665377974510193,0.17498426139354706,0.05345364660024643,0.011919721961021423,0.09187093377113342,0.2199944108724594,-0.15060266852378845,-0.1348045915365219,-0.05567636713385582,-0.15064023435115814,0.07446006685495377,-0.15623386204242706,0.11282183229923248,0.05420758202672005,0.0985116958618164,0.2855740785598755,0.13652712106704712,0.14029854536056519,-0.007690974045544863,0.0412294939160347,-0.07179450243711472,-0.011281107552349567,0.1501978039741516,-0.06168140098452568,-0.03680216893553734,-0.1464764028787613,0.2181468904018402,0.23572057485580444,-0.021310435608029366,-0.021976036950945854,0.09210623800754547,-0.10928250849246979,0.089652419090271,0.17979124188423157,0.1287999153137207,0.05750887840986252,0.1281316578388214,-0.012745124287903309,-0.06812658905982971,0.21230576932430267,0.04308617115020752,-0.06473308801651001,0.09236642718315125,0.16523075103759766,-0.07790902256965637,-0.04837960749864578,0.03995724022388458,0.0811583399772644,-0.16440944373607635,0.14005593955516815,0.23179709911346436,0.0027781028766185045,0.0577642023563385,-0.16828587651252747,-0.026969455182552338,-0.1541135013103485,0.07550368458032608,0.03858320042490959,-0.15929004549980164,0.010819008573889732,-0.11231075972318649,0.15293416380882263,0.07025394588708878,0.003889096202328801,0.0881451964378357,0.0218263678252697,0.0010077061597257853,0.10842359811067581,-0.11879555135965347,0.02691642753779888,0.00634726183488965,-0.1154170110821724,-0.05398591607809067,-0.2045484036207199,-0.05886651575565338,-0.11364156007766724,0.11061935871839523,0.16141732037067413,-0.02914404682815075,-0.23857615888118744,-0.02227623388171196,-0.15269818902015686,-0.04083254933357239,-0.18966428935527802,-0.07609245181083679,-0.08078386634588242,-0.09716536849737167,0.22026680409908295,-0.06426652520895004,0.09715601056814194,0.012298705987632275,-0.2196664959192276
6ECB19B51D50AF36179C870F3504C623,0.0168453399091959,0.5478954911231995,-0.11784964054822922,-0.3969433009624481,-0.6481763124465942,-0.5011942386627197,0.38639143109321594,0.22235356271266937,0.40133199095726013,-0.17832769453525543,0.6814025044441223,-0.10190551728010178,-0.28410589694976807,-0.41061514616012573,-0.17972363531589508,-1.6928044557571411,0.17734375596046448,0.6056985855102539,0.6572700142860413,1.4125986099243164,0.08958041667938232,-0.15977345407009125,0.6984851360321045,1.3094284534454346,0.7884835600852966,0.5745905637741089,-0.48874929547309875,0.37919706106185913,-0.6313285827636719,0.11714385449886322,-0.29314863681793213,-0.36538562178611755,0.7579901218414307,0.47574010491371155,0.12693068385124207,0.08104785531759262,-0.6218137145042419,0.2516934871673584,0.2793944776058197,-0.06676199287176132,0.3418966233730316,0.5488355755805969,-0.6584486961364746,-0.18310579657554626,-0.34029510617256165,-0.6286528706550598,-0.12319941073656082,-0.44931960105895996,-0.0017144426237791777,-1.483383312006481e-05,0.34806397557258606,1.550606608390808,0.8929856419563293,1.4426381587982178,0.2933533787727356,0.2887188196182251,0.2777959704399109,0.1605253964662552,1.1112580299377441,0.3531559705734253,-0.02410339191555977,-0.9795442223548889,0.8698562383651733,0.5300650000572205,0.4789741635322571,0.2455434799194336,0.10871931910514832,-0.972567081451416,0.010967200621962547,1.0461745262145996,1.4836499691009521,0.5500550270080566,0.5812767744064331,0.43907541036605835,-0.44405698776245117,0.7361206412315369,0.1492721289396286,-0.0786113366484642,-0.2723429203033447,0.03455983102321625,-0.13931000232696533,-0.21305206418037415,0.305571973323822,0.49704229831695557,-0.5009662508964539,0.3306664228439331,1.0687135457992554,0.21438582241535187,0.759570837020874,-0.3260110020637512,-0.6126916408538818,-0.05787472426891327,0.362755686044693,0.13018491864204407,0.22111332416534424,1.1373058557510376,0.36529797315597534,-0.13891974091529846,0.13370265066623688,-0.5727128386497498,-0.22410275042057037,-0.6934142708778381,-0.40793105959892273,0.029507920145988464,-0.6934826374053955,0.04015083611011505,0.4488169848918915,-0.4966001808643341,-0.22707988321781158,-0.31779128313064575,-1.0205641984939575,-0.5831679701805115,0.6712936162948608,0.7681600451469421,0.967305064201355,-1.0154030323028564,0.41686779260635376,0.22661420702934265,-0.491662859916687,-0.9106450080871582,-0.8931180834770203,0.147694930434227,-0.30706489086151123,0.8369807004928589,0.3914564847946167,0.0999082550406456,-0.23701900243759155,-1.509743094444275
7EDCAE7740EE7E7C75699CFBB4D89310,-0.16223594546318054,-0.04211786016821861,-0.04671592265367508,-0.06409023702144623,-0.30117908120155334,-0.14302940666675568,0.16686128079891205,0.27616968750953674,0.23022635281085968,0.058895502239465714,-0.03813384100794792,-0.304091215133667,0.2131948322057724,0.24689190089702606,0.21285907924175262,-0.5095296502113342,0.05099353939294815,0.19749189913272858,0.156575009226799,0.23128341138362885,-0.11075183749198914,0.33707284927368164,0.14485400915145874,0.47336557507514954,0.15930341184139252,0.30118516087532043,-0.0901041254401207,0.09748835861682892,-0.37332072854042053,0.03454845771193504,-0.26883724331855774,-0.3612728714942932,0.05806939676403999,0.00297102821059525,0.06168730556964874,0.10419248044490814,-0.18022774159908295,0.31732282042503357,0.08808856457471848,0.006890598684549332,0.16005383431911469,0.39060696959495544,-0.2674604058265686,-0.23824995756149292,-0.0937061533331871,-0.27107882499694824,0.12559211254119873,-0.27560946345329285,0.1888839304447174,0.08984146267175674,0.17544440925121307,0.5042575001716614,0.24594974517822266,0.24401944875717163,-0.001117007341235876,0.06957023590803146,-0.11934274435043335,-0.012315926142036915,0.2723076641559601,-0.10875726491212845,-0.06614574790000916,-0.25828441977500916,0.3921128809452057,0.4123998284339905,-0.04511493444442749,-0.02689512073993683,0.1555051952600479,-0.20369793474674225,0.14161789417266846,0.3238106071949005,0.24072711169719696,0.09874371439218521,0.22649908065795898,-0.01861816830933094,-0.12151768803596497,0.36849290132522583,0.06840194761753082,-0.11641290038824081,0.15287712216377258,0.2931174635887146,-0.13713708519935608,-0.07584206759929657,0.07540138810873032,0.1407853215932846,-0.2868303954601288,0.24501344561576843,0.40377965569496155,0.004167122766375542,0.10211645811796188,-0.2889074385166168,-0.053019143640995026,-0.2774956226348877,0.12451446801424026,0.06438520550727844,-0.26635655760765076,0.022944509983062744,-0.19250141084194183,0.2633189857006073,0.1129700243473053,-0.001233834307640791,0.13985508680343628,0.03428635746240616,0.004986925981938839,0.1819934844970703,-0.22398494184017181,0.050968948751688004,0.03289778158068657,-0.20820963382720947,-0.09521007537841797,-0.3611115515232086,-0.11131731420755386,-0.20009030401706696,0.18927723169326782,0.28656572103500366,-0.042011458426713943,-0.41771650314331055,-0.03773011639714241,-0.255569726228714,-0.08319615572690964,-0.3386496305465698,-0.12769371271133423,-0.13418073952198029,-0.1767989546060562,0.39764830470085144,-0.10530273616313934,0.170370951294899,0.016686251387000084,-0.3861907720565796
8735751096DE66DB7838ED03D286EE5B,-0.5494627952575684,-0.7974151968955994,-0.3324897289276123,0.0048957932740449905,-0.27904173731803894,-0.23101183772087097,0.5910876393318176,0.7968541383743286,0.4672695994377136,0.27693286538124084,-0.24685274064540863,-0.9563267230987549,0.9881467819213867,1.0843260288238525,0.5277023315429688,-0.590995192527771,0.3937862813472748,0.19139771163463593,-0.0958329290151596,-0.11555478721857071,-0.5607792139053345,1.3335129022598267,-0.26587897539138794,0.2141168862581253,-0.19947879016399384,0.2725670337677002,0.15528132021427155,0.16541561484336853,-0.5087937116622925,0.006439353805035353,-0.5594480633735657,-0.9785794019699097,-0.12639249861240387,-0.21056906878948212,-0.13144366443157196,0.37522435188293457,-0.05179423838853836,0.3966203033924103,0.39747366309165955,0.20182155072689056,-0.03244858235120773,0.5616843700408936,-0.5339171290397644,-0.4757821559906006,-0.15350429713726044,0.06302245706319809,0.672921895980835,-0.2930963337421417,0.6509447693824768,0.12884216010570526,-0.3227904438972473,-0.07624122500419617,-0.25761163234710693,-0.10056676715612411,-0.23172436654567719,-0.07219401001930237,-0.45312848687171936,-0.1829930692911148,0.03095470368862152,-0.38647472858428955,-0.22162370383739471,-0.06474441289901733,0.368661105632782,1.1407561302185059,-0.8114322423934937,-0.18470875918865204,0.4389202296733856,-0.12713809311389923,0.11243555694818497,0.022787801921367645,-0.4843501150608063,-0.004269896075129509,-0.04525429382920265,-0.31455138325691223,0.11816138029098511,0.5998088717460632,0.2470095008611679,0.16021472215652466,0.7003791928291321,0.6347540616989136,-0.5655753016471863,-0.3601824939250946,-0.22561533749103546,0.22614961862564087,-0.4964038133621216,0.643242359161377,0.01935969851911068,0.06450872868299484,-0.2185952514410019,-0.40230652689933777,0.32613274455070496,-0.445622980594635,0.06179601699113846,0.13388822972774506,-0.9141849875450134,-0.3120247721672058,-0.7921274304389954,0.6664509177207947,0.10673735290765762,0.24095679819583893,0.45906776189804077,0.8947513699531555,-0.08020045608282089,0.777152419090271,-0.19870294630527496,0.24374762177467346,-0.33725792169570923,-0.39573127031326294,0.07028629630804062,-0.6929173469543457,0.6100782155990601,-0.2569286823272705,-0.28065428137779236,0.238795205950737,-0.6069523096084595,-0.4192788600921631,-0.2999574542045593,-0.9631381034851074,0.19374045729637146,-0.3361566662788391,0.4775457978248596,-0.5499916672706604,-0.9191088676452637,0.5155206918716431,-0.793350875377655,0.3760121166706085,0.22409428656101227,0.13247117400169373
877ECAA43243F6B57745F72278965467,0.002465998288244009,0.5178312659263611,-0.11588949710130692,-0.39409732818603516,-0.644239068031311,-0.4960263669490814,0.3806858956813812,0.25666186213493347,0.38832253217697144,-0.17462339997291565,0.6692094802856445,-0.1130223497748375,-0.2588694095611572,-0.4069884419441223,-0.1617630422115326,-1.6281278133392334,0.13318116962909698,0.5517023801803589,0.6728185415267944,1.3512314558029175,0.05010213330388069,-0.1561693251132965,0.6703001856803894,1.33046555519104,0.7607737183570862,0.6029415726661682,-0.505218505859375,0.3197849690914154,-0.646048903465271,0.16937389969825745,-0.25961944460868835,-0.3520943522453308,0.7340150475502014,0.48045220971107483,0.175497904419899,0.053445249795913696,-0.5797069072723389,0.2687148451805115,0.2710057199001312,-0.1101655438542366,0.3493831157684326,0.5305851101875305,-0.6348467469215393,-0.1379944533109665,-0.3396342098712921,-0.6599084138870239,-0.1348518431186676,-0.4584309160709381,-0.04301976412534714,0.009775535203516483,0.36888325214385986,1.5482572317123413,0.8507375717163086,1.3715251684188843,0.2736864686012268,0.25200125575065613,0.27729111909866333,0.1733928769826889,1.0647010803222656,0.3760334253311157,0.0015381734119728208,-0.9942934513092041,0.8812680840492249,0.4596670866012573,0.4223514795303345,0.17256172001361847,0.058457374572753906,-0.9473316073417664,-0.020617753267288208,1.0499207973480225,1.4562633037567139,0.5132917165756226,0.569282591342926,0.4309993088245392,-0.4209076762199402,0.7075061202049255,0.14725901186466217,-0.15972819924354553,-0.2563503682613373,0.06531038135290146,-0.1605045050382614,-0.18813669681549072,0.2523685097694397,0.4847993850708008,-0.523362934589386,0.2968936860561371,0.9833669066429138,0.162089541554451,0.7194594144821167,-0.30387043952941895,-0.5742210745811462,-0.10127639025449753,0.3503180146217346,0.1251971572637558,0.23171579837799072,1.0221714973449707,0.38630396127700806,-0.10926718264818192,0.10857600718736649,-0.5673953890800476,-0.21228104829788208,-0.6707080602645874,-0.30547094345092773,0.03760823234915733,-0.6997668147087097,0.023092176765203476,0.48618409037590027,-0.5469549894332886,-0.224571093916893,-0.32056084275245667,-1.0102592706680298,-0.6320430636405945,0.6356920599937439,0.7203829884529114,0.9123181700706482,-0.9969392418861389,0.3871426284313202,0.20043811202049255,-0.48397552967071533,-0.8619484305381775,-0.8865634202957153,0.1262301653623581,-0.2919107675552368,0.866090714931488,0.38959798216819763,0.1020103245973587,-0.20227277278900146,-1.454554796218872
87D108B2763CE08D3F611F7D240597EC,-0.4194530248641968,-0.6418272256851196,-0.05821536108851433,-0.1823325753211975,-0.5302863717079163,0.2935478985309601,0.28844910860061646,0.44152823090553284,0.7008244395256042,0.22514300048351288,-0.7099609375,-1.0672889947891235,1.092220425605774,0.8097800612449646,0.3132458031177521,-0.5084742903709412,-0.352594792842865,0.46387407183647156,-0.35772716999053955,-0.4561441242694855,-0.5494760274887085,1.192736268043518,-0.011716002598404884,0.10876946151256561,-0.4501138925552368,0.6129837036132812,0.4335130453109741,0.23591384291648865,-0.5430984497070312,0.03278453275561333,-0.9454361796379089,-1.2775731086730957,-0.1663423627614975,-0.36669859290122986,-0.29937055706977844,0.6156909465789795,0.13478289544582367,0.7716273069381714,0.4093758761882782,0.18521559238433838,0.29096823930740356,0.4373062252998352,-0.21426160633563995,-0.28136885166168213,0.31928935647010803,-0.4761420786380768,0.4959363341331482,-0.28631672263145447,0.6030118465423584,0.4657117426395416,0.10519548505544662,0.1779562532901764,0.0655745193362236,-0.16479447484016418,-0.196359321475029,0.14794611930847168,-0.7323306202888489,-0.17651759088039398,-0.17103806138038635,-0.5750313997268677,-0.2838072180747986,0.06920115649700165,0.4914693236351013,1.0373657941818237,-0.651174008846283,-0.018969032913446426,0.3098786175251007,0.2457560896873474,0.6808242201805115,0.3647165298461914,-0.5716811418533325,-0.06340105831623077,0.1282835304737091,-0.3072208762168884,0.17788752913475037,0.6994065642356873,0.06811317056417465,0.052097685635089874,0.6800681352615356,0.8317918181419373,0.04797232151031494,-0.5770842432975769,0.10234201699495316,0.18369340896606445,-0.42814889550209045,0.6883059144020081,0.5182774066925049,-0.04930505529046059,-0.37137824296951294,-0.48618796467781067,-0.06449665874242783,-0.9093766808509827,0.2632087469100952,0.1994653195142746,-0.7969112396240234,-0.47716936469078064,-1.1232120990753174,0.4658045470714569,0.39763012528419495,0.27481019496917725,0.8044106364250183,0.6492215394973755,-0.5255725979804993,0.05153842270374298,-0.35534927248954773,0.041922423988580704,-0.25190645456314087,-0.41242673993110657,-0.1484319269657135,-0.5097882747650146,0.46712109446525574,0.13400833308696747,-0.03877956047654152,0.3278465270996094,-0.6923496127128601,-0.5277689695358276,-0.63020920753479,-0.7216981649398804,-0.2929541766643524,-0.4609876871109009,0.6300941109657288,-1.0337320566177368,-0.28587469458580017,0.4572654366493225,-0.5704688429832458,0.5239682197570801,0.027332881465554237,0.35101988911628723
88152846C45924D5706A11523942C82B,-0.4144720435142517,-0.6260297298431396,-0.045030396431684494,-0.16936910152435303,-0.5282226800918579,0.2976798117160797,0.2666729986667633,0.43678736686706543,0.6871076822280884,0.2249584048986435,-0.7197011709213257,-1.0472756624221802,1.078112006187439,0.8061806559562683,0.3239405155181885,-0.48231300711631775,-0.36133909225463867,0.45385482907295227,-0.3529091477394104,-0.46504420042037964,-0.5356452465057373,1.1742078065872192,-0.009569757618010044,0.10900149494409561,-0.4447210431098938,0.6136922240257263,0.43169838190078735,0.22761212289333344,-0.5405595898628235,0.025511939078569412,-0.9329912066459656,-1.2578438520431519,-0.1772661805152893,-0.369029700756073,-0.2845745384693146,0.602015495300293,0.13073547184467316,0.7766643762588501,0.3865644931793213,0.1813020557165146,0.29405707120895386,0.4423460066318512,-0.20714589953422546,-0.28438103199005127,0.32210573554039,-0.4846007823944092,0.4833067059516907,-0.29473328590393066,0.5990318059921265,0.46904852986335754,0.12484905868768692,0.18877029418945312,0.07549583911895752,-0.17561395466327667,-0.19685043394565582,0.1496998369693756,-0.7311118245124817,-0.1747320145368576,-0.1775641292333603,-0.5788143277168274,-0.27790623903274536,0.07566819339990616,0.486996591091156,1.0211048126220703,-0.634887158870697,-0.019565174356102943,0.30836957693099976,0.2543984651565552,0.6882227063179016,0.36091774702072144,-0.5704470872879028,-0.06733787804841995,0.1382833570241928,-0.30897900462150574,0.16822078824043274,0.6905999779701233,0.05990258976817131,0.03525771200656891,0.675317645072937,0.8306980133056641,0.05760371312499046,-0.5553553700447083,0.11293225735425949,0.17661650478839874,-0.4197016656398773,0.6762197613716125,0.5262934565544128,-0.05962023138999939,-0.3758033215999603,-0.4898368716239929,-0.06209080293774605,-0.9160838723182678,0.2603662610054016,0.1948995590209961,-0.7933973670005798,-0.49054497480392456,-1.1182805299758911,0.471916139125824,0.401304692029953,0.2870751917362213,0.8041795492172241,0.6339420080184937,-0.5034219622612,0.043396592140197754,-0.3428597152233124,0.041416019201278687,-0.24847309291362762,-0.3985614776611328,-0.15712161362171173,-0.5113986134529114,0.4570380449295044,0.14059409499168396,-0.027110092341899872,0.3216172754764557,-0.70049649477005,-0.5273591876029968,-0.6284254789352417,-0.7195122838020325,-0.2897801399230957,-0.455231249332428,0.6177308559417725,-1.0242486000061035,-0.2598557472229004,0.4527343511581421,-0.5643395185470581,0.5224360823631287,0.02990126609802246,0.34389975666999817
8F2B434CB318B1B902E0E05D150300C5,-0.5518798232078552,-0.7917289137840271,-0.31669506430625916,0.011504804715514183,-0.2889743149280548,-0.21772250533103943,0.570043683052063,0.7938780784606934,0.46652284264564514,0.28078413009643555,-0.27608004212379456,-0.9600510597229004,0.9906942844390869,1.096495270729065,0.5510640740394592,-0.5667778849601746,0.37121835350990295,0.19107000529766083,-0.10057775676250458,-0.13767683506011963,-0.5603590607643127,1.3381370306015015,-0.26457956433296204,0.22094938158988953,-0.20473314821720123,0.28429868817329407,0.15743635594844818,0.15706700086593628,-0.5179072022438049,0.004844340495765209,-0.5651193261146545,-0.9792203307151794,-0.1506337970495224,-0.22400623559951782,-0.12265428155660629,0.3717134892940521,-0.05279333144426346,0.4230681359767914,0.37897583842277527,0.198972687125206,-0.02029135823249817,0.5776851177215576,-0.520858645439148,-0.48426583409309387,-0.14466896653175354,0.04278627783060074,0.6656224131584167,-0.3035159409046173,0.6533560156822205,0.1439768224954605,-0.29607099294662476,-0.05733083561062813,-0.24507705867290497,-0.11883372813463211,-0.23658986389636993,-0.06745075434446335,-0.4697883129119873,-0.18493829667568207,0.021431580185890198,-0.4037275016307831,-0.22419585287570953,-0.0603799931704998,0.37616780400276184,1.1346042156219482,-0.8005643486976624,-0.19378820061683655,0.4372832477092743,-0.10683044791221619,0.13603416085243225,0.030748164281249046,-0.4936184585094452,-0.012044846080243587,-0.030736276879906654,-0.32400861382484436,0.1120806559920311,0.5980013608932495,0.24096623063087463,0.13726980984210968,0.7061172723770142,0.6508243083953857,-0.5536476969718933,-0.3472481369972229,-0.21196556091308594,0.21498803794384003,-0.49902039766311646,0.6384327411651611,0.0429752916097641,0.04912140965461731,-0.22884796559810638,-0.4185747504234314,0.33000943064689636,-0.4686569273471832,0.0657934620976448,0.13711655139923096,-0.9277116060256958,-0.35122138261795044,-0.8103877305984497,0.6885942816734314,0.12220936268568039,0.2625170946121216,0.47659048438072205,0.8882244825363159,-0.06032402440905571,0.7669351696968079,-0.1943260133266449,0.23734907805919647,-0.3430471420288086,-0.3895917236804962,0.05848553776741028,-0.7075479626655579,0.6123292446136475,-0.24955305457115173,-0.2646486163139343,0.23997551202774048,-0.6310078501701355,-0.4247508645057678,-0.31569647789001465,-0.9695541262626648,0.1929130107164383,-0.335231214761734,0.4736507534980774,-0.5587050318717957,-0.8845166563987732,0.5169745683670044,-0.793041467666626,0.3849484324455261,0.2269618958234787,0.1347735971212387
95A85454593426D42E45D11959801D58,-0.26390454173088074,0.06040845811367035,0.10517878085374832,0.27508243918418884,-0.28728801012039185,-0.20152592658996582,-0.11830238997936249,0.4397742748260498,0.10683063417673111,0.15456907451152802,-0.37332579493522644,-0.21290990710258484,0.1878947913646698,0.5772649645805359,0.8387211561203003,-0.12458550184965134,0.1727771908044815,0.03488309681415558,0.38368239998817444,0.09713864326477051,-0.01872078888118267,0.4848475158214569,0.11552713811397552,0.7590367197990417,0.2776948809623718,0.3085922598838806,-0.1437642127275467,-0.12993212044239044,-0.4929846227169037,-0.007946128956973553,-0.09223438799381256,-0.08852168172597885,-0.29908257722854614,-0.2439444214105606,0.31176623702049255,-0.08679413795471191,-0.3165875971317291,0.5291667580604553,-0.261456698179245,0.034933172166347504,0.2316962629556656,0.7562384009361267,-0.18878526985645294,-0.6268821954727173,-0.16926713287830353,-0.2911663353443146,0.15630227327346802,-0.45720595121383667,0.34404781460762024,0.08793841302394867,0.46310561895370483,0.7256006002426147,0.28735998272895813,-0.10853523015975952,-0.10212645679712296,-0.00677209859713912,-0.1498340666294098,-0.08983013778924942,0.29097312688827515,-0.345099538564682,-0.02677658013999462,-0.22523723542690277,0.49764981865882874,0.33065593242645264,0.16651426255702972,-0.2886935770511627,0.2839251160621643,-0.08706650137901306,0.26720350980758667,0.1898260861635208,0.19499677419662476,0.038083482533693314,0.37413322925567627,-0.15471167862415314,-0.20870138704776764,0.34016701579093933,-0.009941310621798038,-0.5286514163017273,0.2915204167366028,0.4624543786048889,-0.28956443071365356,0.31922274827957153,0.15723715722560883,-0.09068375825881958,-0.43598732352256775,0.08221369981765747,0.6339684128761292,-0.20845824480056763,-0.01138249970972538,-0.6440598368644714,0.27181848883628845,-0.44566357135772705,0.10144241154193878,0.0031022417824715376,-0.6483055353164673,-0.548686683177948,-0.2591063976287842,0.8141753077507019,0.17166516184806824,0.3022442162036896,0.22411832213401794,0.021560100838541985,0.6465509533882141,0.45549118518829346,-0.045453399419784546,0.055772844702005386,-0.07728687673807144,-0.02791362628340721,-0.15600687265396118,-0.6400646567344666,-0.0638577863574028,-0.24010545015335083,0.3981814980506897,0.3399006128311157,-0.5004235506057739,-0.40273424983024597,-0.040956053882837296,-0.47287800908088684,0.24637693166732788,-0.1869693100452423,-0.3397310674190521,0.09730181843042374,0.1397385597229004,0.40422558784484863,-0.21594740450382233,0.2387210875749588,0.16965407133102417,-0.6343866586685181
96B971C9AC868C8D9AE98618B9A9BDDC,-0.42108383774757385,-0.6306241750717163,-0.047657959163188934,-0.1706174612045288,-0.5346337556838989,0.29710498452186584,0.27302902936935425,0.44295236468315125,0.6934292316436768,0.22693999111652374,-0.7250857949256897,-1.0598586797714233,1.0881115198135376,0.8172212839126587,0.328495591878891,-0.49370771646499634,-0.36057084798812866,0.45501554012298584,-0.3548070192337036,-0.46893081068992615,-0.5415646433830261,1.183282732963562,-0.010834824293851852,0.11675269901752472,-0.44530975818634033,0.6199955940246582,0.4294893741607666,0.22969558835029602,-0.5503356456756592,0.027911266312003136,-0.9448782801628113,-1.269837737083435,-0.18239308893680573,-0.36896300315856934,-0.2859928011894226,0.6067929267883301,0.12606531381607056,0.788452684879303,0.38961148262023926,0.1759607344865799,0.29670989513397217,0.4552665054798126,-0.2133171707391739,-0.2875936031341553,0.3215380907058716,-0.4897764027118683,0.4885801672935486,-0.29957714676856995,0.6065482497215271,0.4722740948200226,0.13062946498394012,0.19970953464508057,0.07710054516792297,-0.17907334864139557,-0.19987457990646362,0.14869681000709534,-0.7406280636787415,-0.17607522010803223,-0.1761617511510849,-0.5873783230781555,-0.2798200249671936,0.07106787711381912,0.49559611082077026,1.0289067029953003,-0.6382589340209961,-0.023466063663363457,0.31123027205467224,0.2507280111312866,0.6947637796401978,0.37203893065452576,-0.5722705125808716,-0.07220087945461273,0.14582210779190063,-0.31063112616539,0.16703173518180847,0.6992965340614319,0.061045318841934204,0.02941783331334591,0.680973470211029,0.8433941006660461,0.05317310616374016,-0.5556581020355225,0.11222326755523682,0.17732243239879608,-0.4266277849674225,0.6850148439407349,0.5357197523117065,-0.06176956370472908,-0.3719598054885864,-0.49611207842826843,-0.06257785856723785,-0.9246253371238708,0.26122093200683594,0.1986345648765564,-0.8044075965881348,-0.5010358691215515,-1.124703049659729,0.4805751442909241,0.40002939105033875,0.2909229099750519,0.8098962903022766,0.6400637030601501,-0.49907368421554565,0.049909450113773346,-0.3458486497402191,0.0392596572637558,-0.2532557547092438,-0.4030226767063141,-0.16122828423976898,-0.5213872790336609,0.46222031116485596,0.13367635011672974,-0.024208005517721176,0.32581430673599243,-0.7090510129928589,-0.5338294506072998,-0.6337651610374451,-0.728350818157196,-0.29352930188179016,-0.46317052841186523,0.6213759183883667,-1.0266034603118896,-0.2639150321483612,0.46115076541900635,-0.569180965423584,0.5285843014717102,0.035418279469013214,0.342247873544693
9EED9619EAC172FA0B29DE755907759C,-0.1599659025669098,-0.008206721395254135,-0.04583074524998665,-0.06765582412481308,-0.3122885525226593,-0.16152623295783997,0.16614659130573273,0.2630338668823242,0.22258640825748444,0.050311218947172165,0.006515654735267162,-0.2752532362937927,0.18118107318878174,0.2233782857656479,0.20614588260650635,-0.5566182732582092,0.059552960097789764,0.1995016485452652,0.19214466214179993,0.2747833728790283,-0.09326347708702087,0.3059741258621216,0.17110103368759155,0.5218620300292969,0.19379661977291107,0.3090544641017914,-0.11904516816139221,0.11382065713405609,-0.38225093483924866,0.03813370689749718,-0.24458064138889313,-0.3420027792453766,0.09390236437320709,0.02230331115424633,0.07774639129638672,0.08564341068267822,-0.20607292652130127,0.3090355396270752,0.07942148298025131,0.007114442065358162,0.1598387211561203,0.39940938353538513,-0.2909433841705322,-0.23742099106311798,-0.11766551434993744,-0.27740514278411865,0.1242578998208046,-0.2860821783542633,0.16910696029663086,0.08623728156089783,0.17022664844989777,0.5571548938751221,0.27822619676589966,0.29098188877105713,0.011324562132358551,0.07582507282495499,-0.09829708933830261,-0.00043748386087827384,0.3104512393474579,-0.08072075247764587,-0.054735250771045685,-0.3027350902557373,0.4146842658519745,0.4168265163898468,-0.011443275958299637,-0.023270877078175545,0.14369447529315948,-0.2503642439842224,0.1218833327293396,0.36699944734573364,0.29107987880706787,0.11690400540828705,0.24326376616954803,0.0017202055314555764,-0.12968021631240845,0.39540916681289673,0.0753285214304924,-0.10985799133777618,0.1453138142824173,0.28407907485961914,-0.14106225967407227,-0.07471512258052826,0.06350608915090561,0.161616250872612,-0.29065483808517456,0.25241807103157043,0.4274075925350189,0.007214872166514397,0.14678315818309784,-0.2885628044605255,-0.08327559381723404,-0.252686470746994,0.13127261400222778,0.06822369992733002,-0.2466060072183609,0.07049474120140076,-0.13782446086406708,0.25394368171691895,0.11630019545555115,-0.01788143999874592,0.12727807462215424,-0.014120430685579777,0.012913666665554047,0.17791791260242462,-0.2331121414899826,0.04352441430091858,0.05771750584244728,-0.2221611589193344,-0.10655899345874786,-0.36317989230155945,-0.16196176409721375,-0.22433161735534668,0.21677201986312866,0.3062340319156647,-0.008662061765789986,-0.4407626688480377,0.001675062463618815,-0.23856696486473083,-0.09705810993909836,-0.3594401776790619,-0.1745273470878601,-0.11597474664449692,-0.1859687864780426,0.4098568260669708,-0.08559435606002808,0.1650201380252838,0.008529231883585453,-0.45269593596458435
A08B9A984B28E520CBDE839D83DB2D14,0.02157747372984886,0.5703473687171936,-0.10808362811803818,-0.3754017651081085,-0.6436296701431274,-0.5101333260536194,0.3593598008155823,0.22184111177921295,0.37472623586654663,-0.17339913547039032,0.6710806488990784,-0.07277698814868927,-0.30951640009880066,-0.40584680438041687,-0.1493833363056183,-1.650053858757019,0.17474611103534698,0.5718003511428833,0.6767780184745789,1.392661690711975,0.10964841395616531,-0.18868546187877655,0.6962571144104004,1.3311039209365845,0.8073378801345825,0.5749734044075012,-0.5177293419837952,0.3597807288169861,-0.6401428580284119,0.11838997155427933,-0.2687487006187439,-0.31497499346733093,0.7274861335754395,0.46879157423973083,0.16050757467746735,0.04883571341633797,-0.6289770007133484,0.2626037001609802,0.23464074730873108,-0.08110341429710388,0.3475654125213623,0.5715684294700623,-0.6441670656204224,-0.1898954212665558,-0.3556470274925232,-0.6368714570999146,-0.13947302103042603,-0.4713512659072876,-0.017580606043338776,-0.010876711457967758,0.384581983089447,1.570203423500061,0.9094212055206299,1.4117295742034912,0.2885514199733734,0.2755962908267975,0.28144893050193787,0.16858015954494476,1.1046669483184814,0.33836039900779724,-0.013369661755859852,-0.9833113551139832,0.8674177527427673,0.4916243553161621,0.5028899312019348,0.22482340037822723,0.10135985165834427,-0.9636228084564209,0.006433417554944754,1.0411498546600342,1.495444416999817,0.532931387424469,0.6034950017929077,0.42802461981773376,-0.46365490555763245,0.7175028324127197,0.1445436328649521,-0.12667877972126007,-0.27447834610939026,0.04449129104614258,-0.14409612119197845,-0.1661749631166458,0.3031264543533325,0.4766363501548767,-0.4950067698955536,0.31268739700317383,1.0713152885437012,0.19807781279087067,0.7684565186500549,-0.338575541973114,-0.5957977175712585,-0.05979745090007782,0.3472488820552826,0.11465001106262207,0.21538610756397247,1.0918797254562378,0.3848140835762024,-0.10533339530229568,0.12622830271720886,-0.5522494912147522,-0.23079362511634827,-0.71120685338974,-0.3316706717014313,0.03670840710401535,-0.6741687059402466,0.03425499051809311,0.45311856269836426,-0.4759503901004791,-0.23292425274848938,-0.3434986174106598,-1.0285173654556274,-0.5922188758850098,0.6894682049751282,0.7633777856826782,0.9433395862579346,-1.0048818588256836,0.4188656806945801,0.21185976266860962,-0.4697688817977905,-0.9021549224853516,-0.9272211790084839,0.18524359166622162,-0.27228111028671265,0.8396080136299133,0.403663694858551,0.10162284225225449,-0.22209924459457397,-1.5346832275390625
B65B82EDDCECD719C55D6D222926E648,-0.17735597491264343,-0.05698609724640846,-0.04036345332860947,-0.039812538772821426,-0.30057597160339355,-0.13376875221729279,0.14384610950946808,0.29439669847488403,0.22929354012012482,0.07113149762153625,-0.07688433676958084,-0.31004592776298523,0.24137692153453827,0.30005717277526855,0.25983747839927673,-0.46481773257255554,0.05147525295615196,0.17644263803958893,0.1449815332889557,0.183280810713768,-0.12481360882520676,0.36645352840423584,0.12270472943782806,0.4558795988559723,0.1362389773130417,0.30078184604644775,-0.07333802431821823,0.08307183533906937,-0.3711582124233246,0.013202362693846226,-0.26997673511505127,-0.35089290142059326,0.012339560315012932,-0.028887858614325523,0.06372346729040146,0.09521377831697464,-0.17858575284481049,0.321976900100708,0.06988568603992462,0.015984095633029938,0.16343052685260773,0.40701761841773987,-0.25583454966545105,-0.2580234408378601,-0.10059556365013123,-0.2567029595375061,0.13840125501155853,-0.28154700994491577,0.21530640125274658,0.10212815552949905,0.17696410417556763,0.47198593616485596,0.221202552318573,0.19334597885608673,-0.018823713064193726,0.05510684475302696,-0.13234718143939972,-0.01934528723359108,0.2337355613708496,-0.14456301927566528,-0.06844104081392288,-0.2313402146100998,0.3801284432411194,0.41784098744392395,-0.062379393726587296,-0.04230779409408569,0.1617213636636734,-0.16791795194149017,0.1608540266752243,0.29437455534935,0.19609875977039337,0.08730153739452362,0.22267122566699982,-0.032298874109983444,-0.10909071564674377,0.3628811836242676,0.06766274571418762,-0.13065417110919952,0.1823481321334839,0.3141360282897949,-0.14737415313720703,-0.060834504663944244,0.060971882194280624,0.12553471326828003,-0.2946418225765228,0.24572305381298065,0.39196324348449707,-0.008983328938484192,0.06909218430519104,-0.3054765462875366,-0.0293886661529541,-0.29692578315734863,0.12433033436536789,0.06380511820316315,-0.31015610694885254,-0.040500156581401825,-0.21749316155910492,0.30601179599761963,0.1277949959039688,0.03693147748708725,0.16357296705245972,0.05864197015762329,0.044686127454042435,0.20050844550132751,-0.20253999531269073,0.05106482282280922,-0.004262781236320734,-0.18316994607448578,-0.09729940444231033,-0.37809327244758606,-0.08599478751420975,-0.18894901871681213,0.17955416440963745,0.27704551815986633,-0.104365274310112,-0.40166059136390686,-0.04888717830181122,-0.2921326756477356,-0.05370856449007988,-0.32418179512023926,-0.11056916415691376,-0.14810222387313843,-0.16733628511428833,0.388044536113739,-0.13916310667991638,0.1776011437177658,0.03643399104475975,-0.3630460798740387
B7B990FE7884B1EC0998AC465B936B8C,-0.25088080763816833,0.1596820056438446,0.16665315628051758,0.3800309896469116,-0.4125377833843231,-0.2604580819606781,-0.2596357464790344,0.5206197500228882,0.008369430899620056,0.16910810768604279,-0.38747209310531616,-0.14165057241916656,0.15502554178237915,0.7880820631980896,1.1104718446731567,0.007021049503237009,0.19029250741004944,-0.13133783638477325,0.4495665729045868,0.04367557913064957,0.05999673902988434,0.40955159068107605,0.10501802712678909,0.9293109774589539,0.4285780191421509,0.31381985545158386,-0.26619765162467957,-0.2121800184249878,-0.7038486003875732,-0.1642732471227646,-0.019928475841879845,-0.016711657866835594,-0.5716935992240906,-0.2599506378173828,0.5366398096084595,-0.24008047580718994,-0.4347340166568756,0.6335844993591309,-0.4588093161582947,-0.06630095839500427,0.32657870650291443,0.982728123664856,-0.2653471827507019,-0.7607804536819458,-0.3156677782535553,-0.39966273307800293,0.08391295373439789,-0.6544293761253357,0.3250870406627655,0.15373003482818604,0.7208923697471619,0.9303245544433594,0.4615103304386139,-0.23180921375751495,-0.15167392790317535,-0.011590324342250824,-0.1632879376411438,-0.12312319129705429,0.28432023525238037,-0.4465522766113281,0.023772932589054108,-0.19063711166381836,0.5475943088531494,0.2511637806892395,0.24749483168125153,-0.3253762722015381,0.33580631017684937,-0.051879823207855225,0.3422367572784424,0.19320914149284363,0.2756166458129883,-0.08123531937599182,0.5697514414787292,-0.21462185680866241,-0.4451056122779846,0.30955109000205994,0.0014916841173544526,-0.7300512194633484,0.24646925926208496,0.6004804968833923,-0.3346346914768219,0.5464782118797302,0.2299211621284485,-0.0920100212097168,-0.40061262249946594,0.05643860250711441,0.7121872901916504,-0.24977006018161774,0.01779404655098915,-0.7402795553207397,0.3294998109340668,-0.5587372779846191,0.055364880710840225,-0.024043215438723564,-0.7933674454689026,-0.7613889575004578,-0.20860439538955688,1.0388127565383911,0.18112345039844513,0.4693988263607025,0.27138903737068176,0.014335120096802711,1.0754588842391968,0.565645158290863,0.04294760525226593,0.0844724178314209,-0.1737205535173416,0.14364561438560486,-0.23030753433704376,-0.9675470590591431,-0.16060997545719147,-0.29892584681510925,0.5673581957817078,0.32531794905662537,-0.6369493007659912,-0.5117579102516174,-0.028801612555980682,-0.6691766977310181,0.3677331507205963,-0.21677051484584808,-0.3779602348804474,0.18212701380252838,0.1991671472787857,0.5517774820327759,-0.24011655151844025,0.22036582231521606,0.3097479045391083,-0.7603023648262024
B93E51F1E52F43D10D14831B2B9B100C,-0.19457285106182098,-0.0772140845656395,-0.03951000049710274,-0.020915858447551727,-0.30624157190322876,-0.12377473711967468,0.13876289129257202,0.31091585755348206,0.24163475632667542,0.08347154408693314,-0.11099215596914291,-0.33424919843673706,0.2653283476829529,0.34186092019081116,0.3031335771083832,-0.4416562616825104,0.05019697546958923,0.1665770560503006,0.13829202950000763,0.14989979565143585,-0.13442707061767578,0.41326475143432617,0.1049492284655571,0.4605884552001953,0.12178535014390945,0.30905774235725403,-0.05981091782450676,0.07441064715385437,-0.38493508100509644,0.017960866913199425,-0.27879977226257324,-0.37012195587158203,-0.009985731914639473,-0.04830561950802803,0.07102382183074951,0.10795211046934128,-0.17383314669132233,0.3574390709400177,0.06324853748083115,0.027462657541036606,0.16500695049762726,0.4242779016494751,-0.25508204102516174,-0.28096532821655273,-0.08552414923906326,-0.2670568823814392,0.1605871468782425,-0.3048820495605469,0.22592495381832123,0.11503754556179047,0.18263645470142365,0.47512510418891907,0.21614128351211548,0.160991832613945,-0.030410658568143845,0.05563630163669586,-0.16269730031490326,-0.030627937987446785,0.22480331361293793,-0.16440413892269135,-0.07236551493406296,-0.21926139295101166,0.3937089443206787,0.44712013006210327,-0.07724214345216751,-0.06722133606672287,0.17301610112190247,-0.15559886395931244,0.17759530246257782,0.294650137424469,0.1544061303138733,0.07145602256059647,0.2276122123003006,-0.05348934233188629,-0.10875289142131805,0.3788657486438751,0.0629519671201706,-0.14672710001468658,0.20586426556110382,0.34846532344818115,-0.15084145963191986,-0.0572768971323967,0.0632474347949028,0.1146809533238411,-0.3043022155761719,0.2543354630470276,0.40740182995796204,-0.02533111348748207,0.05864700302481651,-0.33685731887817383,-0.0027095640543848276,-0.3279220461845398,0.12080319970846176,0.06551414728164673,-0.35577553510665894,-0.08692006766796112,-0.2509761452674866,0.34645920991897583,0.13070563971996307,0.05981793627142906,0.19398267567157745,0.08666947484016418,0.06292638927698135,0.22103050351142883,-0.19381380081176758,0.050022564828395844,-0.010522272437810898,-0.18127070367336273,-0.0952339768409729,-0.4023262858390808,-0.061384815722703934,-0.18218153715133667,0.18605072796344757,0.2816326320171356,-0.15367063879966736,-0.40872859954833984,-0.06831493973731995,-0.32996371388435364,-0.029902175068855286,-0.3098228871822357,-0.0874558761715889,-0.1595800518989563,-0.16238825023174286,0.39742645621299744,-0.15741735696792603,0.19611288607120514,0.047039903700351715,-0.34383273124694824
BA4268F8694BE7A252B917A692D157C3,-0.434385746717453,-0.5875404477119446,-0.18546029925346375,-0.06577296555042267,-0.3632170259952545,0.013946755789220333,0.36555930972099304,0.5745623707771301,0.5068296790122986,0.1845560371875763,-0.40737056732177734,-0.8720929026603699,0.8752619624137878,0.800611138343811,0.406715989112854,-0.4950437843799591,0.02201167680323124,0.25025132298469543,-0.14690570533275604,-0.2507035732269287,-0.43365684151649475,1.06000554561615,-0.08274903148412704,0.18168677389621735,-0.253156840801239,0.4033523499965668,0.19513675570487976,0.15537041425704956,-0.5035333037376404,0.011377542279660702,-0.6412537693977356,-0.9276808500289917,-0.1492961198091507,-0.25294166803359985,-0.1275879591703415,0.4037950038909912,0.0013546645641326904,0.551310122013092,0.3183601498603821,0.13269014656543732,0.13806061446666718,0.4805455505847931,-0.3519238233566284,-0.33242592215538025,0.03833061084151268,-0.22741220891475677,0.49245476722717285,-0.2886352241039276,0.5347014665603638,0.2501702606678009,-0.033977411687374115,0.11117100715637207,-0.02015809342265129,-0.13949264585971832,-0.20942917466163635,0.002473473083227873,-0.4984499216079712,-0.1313442587852478,-0.03011230379343033,-0.40339964628219604,-0.2155071347951889,-0.028455642983317375,0.41729506850242615,0.9418728351593018,-0.6104549169540405,-0.0857500210404396,0.32902419567108154,0.027845358476042747,0.345750629901886,0.18534965813159943,-0.42116251587867737,-0.04490997642278671,0.06932667642831802,-0.282967746257782,0.11767539381980896,0.5948111414909363,0.1289563626050949,0.002164504025131464,0.6098980903625488,0.6746826171875,-0.2480335533618927,-0.35276302695274353,-0.06632062792778015,0.1370445340871811,-0.4033440351486206,0.5526916980743408,0.28625714778900146,-0.03124929964542389,-0.202856183052063,-0.4069090485572815,0.15506614744663239,-0.5942488312721252,0.11321862041950226,0.11431852728128433,-0.7396332621574402,-0.4021882116794586,-0.7716273069381714,0.5115119814872742,0.18481869995594025,0.2754387855529785,0.5004558563232422,0.6080719232559204,-0.19143259525299072,0.39343708753585815,-0.2317781001329422,0.1438877433538437,-0.19960160553455353,-0.3583207428455353,-0.043338630348443985,-0.5469471216201782,0.41335567831993103,-0.11151715368032455,-0.12251435220241547,0.2497040033340454,-0.5606386661529541,-0.43931758403778076,-0.38401299715042114,-0.7510194778442383,-0.03524542227387428,-0.343182235956192,0.4274260103702545,-0.5991076827049255,-0.46003106236457825,0.4684889316558838,-0.5582486391067505,0.4059538245201111,0.13680996000766754,0.12787878513336182
BA49EB3B3B5B747B7E0331855EBA83F5,-0.2351463884115219,0.12950348854064941,0.1637774407863617,0.3708820044994354,-0.39611920714378357,-0.24479378759860992,-0.23053030669689178,0.5188760757446289,0.030918901786208153,0.16774412989616394,-0.40340378880500793,-0.17202800512313843,0.1599278450012207,0.7707501649856567,1.072217583656311,-0.0016235222574323416,0.15472079813480377,-0.11976543068885803,0.42448949813842773,0.013160002417862415,0.058424212038517,0.4062125086784363,0.11444220691919327,0.8915581703186035,0.4112691879272461,0.3085138201713562,-0.23436972498893738,-0.19070187211036682,-0.6739799976348877,-0.12120528519153595,-0.05210964381694794,-0.03068932704627514,-0.5388730764389038,-0.27914196252822876,0.4935283362865448,-0.21135759353637695,-0.417887806892395,0.6020090579986572,-0.4225040078163147,-0.02912701480090618,0.31679099798202515,0.9473015666007996,-0.2514219880104065,-0.7132616639137268,-0.30263787508010864,-0.37960147857666016,0.07982318103313446,-0.6375022530555725,0.3422929644584656,0.1467430293560028,0.6776342988014221,0.8600736856460571,0.43469706177711487,-0.2174602895975113,-0.13092508912086487,-0.008160735480487347,-0.1929386854171753,-0.11603382974863052,0.28177693486213684,-0.4622291922569275,-0.001773052616044879,-0.1837051808834076,0.5306748151779175,0.2719113826751709,0.23554107546806335,-0.31763458251953125,0.3271334171295166,-0.05453312024474144,0.3122881352901459,0.19352884590625763,0.26494625210762024,-0.06372248381376266,0.5550004839897156,-0.21533294022083282,-0.39203718304634094,0.3186735510826111,0.004173230845481157,-0.6862923502922058,0.24883536994457245,0.5992292165756226,-0.30319681763648987,0.5185992121696472,0.20961856842041016,-0.08284696936607361,-0.3873156011104584,0.08868007361888885,0.6781692504882812,-0.260259211063385,0.01007751189172268,-0.6965842247009277,0.3165675699710846,-0.5630465149879456,0.07526333630084991,-0.03846023231744766,-0.7699764370918274,-0.7376360893249512,-0.2402617484331131,0.9969956278800964,0.1913071870803833,0.442178875207901,0.259663850069046,0.026134513318538666,0.9960765242576599,0.5587656497955322,0.047122448682785034,0.08958998322486877,-0.14247293770313263,0.1069246158003807,-0.23663291335105896,-0.916124701499939,-0.1160912737250328,-0.30509766936302185,0.540569543838501,0.30922695994377136,-0.6167613863945007,-0.488357812166214,-0.012443390674889088,-0.6405291557312012,0.3411424458026886,-0.2099350541830063,-0.36171501874923706,0.1647191047668457,0.20379997789859772,0.5283324718475342,-0.23523026704788208,0.2438124120235443,0.30181896686553955,-0.7320984601974487
BC1CCC120D185A0C36B191EC6B74397C,-0.1540653109550476,-0.030080867931246758,-0.04856891185045242,-0.0475601963698864,-0.29829347133636475,-0.14056730270385742,0.15426528453826904,0.2780442237854004,0.22167715430259705,0.06087486818432808,-0.03961474075913429,-0.28378552198410034,0.20506587624549866,0.24720072746276855,0.22334721684455872,-0.48358795046806335,0.0535426139831543,0.18437881767749786,0.16707870364189148,0.2246762067079544,-0.10298001766204834,0.3281257450580597,0.1386987715959549,0.46630868315696716,0.15927785634994507,0.29409274458885193,-0.08174902945756912,0.09303024411201477,-0.36040329933166504,0.02755402773618698,-0.25196605920791626,-0.33338940143585205,0.05086347460746765,-0.0016278079710900784,0.07083971053361893,0.08854261040687561,-0.1841106414794922,0.30777883529663086,0.07254491746425629,0.006364573258906603,0.1535947173833847,0.39168983697891235,-0.26000091433525085,-0.2401845008134842,-0.10051321983337402,-0.2640276849269867,0.12154410034418106,-0.2805289924144745,0.187566339969635,0.08739401400089264,0.17580090463161469,0.49868279695510864,0.24002397060394287,0.23144187033176422,-0.006525866221636534,0.06910500675439835,-0.11173312366008759,-0.016559310257434845,0.2671939730644226,-0.11426384747028351,-0.06709127873182297,-0.2513744533061981,0.3863741457462311,0.3973436653614044,-0.0393529012799263,-0.034845124930143356,0.15380260348320007,-0.19607731699943542,0.14237923920154572,0.31018194556236267,0.2376726269721985,0.10112032294273376,0.22673091292381287,-0.01858166977763176,-0.11629081517457962,0.3640846610069275,0.06559912115335464,-0.12041328847408295,0.15566566586494446,0.2816954255104065,-0.13842402398586273,-0.0709209218621254,0.07416826486587524,0.13259576261043549,-0.2860764265060425,0.2311439961194992,0.4034922122955322,-0.0008166187326423824,0.10672527551651001,-0.2934209406375885,-0.04706187918782234,-0.2626948952674866,0.117195725440979,0.06148025393486023,-0.2694481611251831,0.016150936484336853,-0.18490292131900787,0.2691344618797302,0.11594055593013763,0.0028750558849424124,0.1400194615125656,0.028407514095306396,0.022074516862630844,0.18850824236869812,-0.21366898715496063,0.05080227181315422,0.024294177070260048,-0.1962224841117859,-0.0910048857331276,-0.35606124997138977,-0.11570034176111221,-0.1975770890712738,0.18974842131137848,0.27801814675331116,-0.0579606369137764,-0.4032454192638397,-0.03264709189534187,-0.25656986236572266,-0.06534886360168457,-0.32353541254997253,-0.1327383816242218,-0.1169155016541481,-0.16665972769260406,0.39100590348243713,-0.10139282792806625,0.16735878586769104,0.021829532459378242,-0.3791332244873047
C117EA93410AD849E7A3FF9293BCD9AB,-0.1830580234527588,-0.053232837468385696,-0.053463373333215714,-0.06154410541057587,-0.34152162075042725,-0.13816778361797333,0.18871143460273743,0.31610071659088135,0.27305394411087036,0.11425729095935822,-0.05835035443305969,-0.3145591616630554,0.2201618254184723,0.2903914749622345,0.2535775303840637,-0.486534982919693,0.040190983563661575,0.14892828464508057,0.11224956810474396,0.17854461073875427,-0.15787304937839508,0.3846203088760376,0.16430316865444183,0.47034287452697754,0.16075021028518677,0.33327317237854004,-0.09096744656562805,0.12500880658626556,-0.36135029792785645,0.027619602158665657,-0.2964377701282501,-0.35937201976776123,0.06854352355003357,-0.044799115508794785,0.0815393328666687,0.11854248493909836,-0.18673381209373474,0.32990843057632446,0.08701856434345245,0.055342987179756165,0.17534080147743225,0.4260352551937103,-0.2648158371448517,-0.26429933309555054,-0.13132748007774353,-0.2647428810596466,0.14054664969444275,-0.33813077211380005,0.19295154511928558,0.08581919223070145,0.20173881947994232,0.46386104822158813,0.23056535422801971,0.24487298727035522,-0.01751505397260189,0.06511667370796204,-0.13272985816001892,-0.0010228886967524886,0.2062181681394577,-0.17791305482387543,-0.07054364681243896,-0.23355282843112946,0.4204520285129547,0.45770999789237976,-0.047744251787662506,-0.036849021911621094,0.13839580118656158,-0.15724453330039978,0.11944699287414551,0.3167165517807007,0.21380865573883057,0.12228869646787643,0.2721746563911438,-0.01792231947183609,-0.1065521240234375,0.35663220286369324,0.05676727369427681,-0.12561537325382233,0.17587760090827942,0.3309084177017212,-0.14905695617198944,-0.06753233075141907,0.06221882626414299,0.15395940840244293,-0.32702258229255676,0.26552361249923706,0.38950589299201965,-0.00878542847931385,0.04812883213162422,-0.30614832043647766,-0.04906267672777176,-0.2791788578033447,0.17930038273334503,0.10844767838716507,-0.3433542847633362,-0.04773026332259178,-0.2461838573217392,0.2658272087574005,0.13822004199028015,0.011874883435666561,0.15929163992404938,0.068416528403759,0.05333923175930977,0.2239314317703247,-0.15827791392803192,0.03572644665837288,0.07054748386144638,-0.21288618445396423,-0.051733460277318954,-0.38898226618766785,-0.0590939074754715,-0.22405663132667542,0.1819620132446289,0.2847369909286499,-0.12111257016658783,-0.42007893323898315,-0.05754154920578003,-0.3380078673362732,-0.038406386971473694,-0.3668946623802185,-0.1640375703573227,-0.1232154443860054,-0.21825644373893738,0.40275081992149353,-0.1527310162782669,0.15325245261192322,0.006847206503152847,-0.3525010347366333
C212074B43B6EF811F2A8FB72E670E0C,-0.16291095316410065,0.22066257894039154,-0.10052134841680527,-0.21551701426506042,-0.5239258408546448,-0.33324721455574036,0.2750895023345947,0.20584100484848022,0.21400611102581024,-0.015485950745642185,0.3322475850582123,-0.2002594769001007,-0.058289967477321625,-0.21389815211296082,-0.08477112650871277,-1.1125036478042603,0.06915339827537537,0.33118849992752075,0.4727906286716461,0.7160782814025879,0.06427435576915741,0.10046447068452835,0.4060820937156677,0.9718793034553528,0.5155141353607178,0.4356198310852051,-0.37965065240859985,0.14863425493240356,-0.44095706939697266,0.20800647139549255,-0.3039669096469879,-0.3256378769874573,0.4406893849372864,0.3350611925125122,0.07231277227401733,0.15015991032123566,-0.30363211035728455,0.24286162853240967,0.08550558984279633,-0.16234664618968964,0.16382773220539093,0.5177062749862671,-0.41706207394599915,-0.08066205680370331,-0.1633152812719345,-0.5570008754730225,0.02354533225297928,-0.33813387155532837,-0.025814829394221306,0.017151031643152237,0.25969943404197693,1.0255917310714722,0.5005813837051392,0.8117682337760925,0.21686112880706787,0.09327507019042969,0.06584344804286957,0.16805341839790344,0.7079775333404541,0.18172587454319,-0.11754252761602402,-0.7209269404411316,0.6273161172866821,0.4238141179084778,0.15733207762241364,0.046996477991342545,-0.015257628634572029,-0.7157913446426392,-0.04655978083610535,0.8378086090087891,0.8338219523429871,0.3529239892959595,0.4301999509334564,0.16783897578716278,-0.28113892674446106,0.6143184304237366,0.1277901530265808,-0.23436908423900604,-0.012518837116658688,0.07531552761793137,-0.07752853631973267,-0.10010659694671631,0.14267800748348236,0.26648592948913574,-0.33400440216064453,0.22752325236797333,0.692476749420166,0.0094010503962636,0.5183629393577576,-0.36781376600265503,-0.32238447666168213,-0.1841869354248047,0.14150261878967285,0.03879886865615845,-0.06122941896319389,0.48413440585136414,0.19663873314857483,0.0661826953291893,0.06409331411123276,-0.18885959684848785,-0.036193348467350006,-0.43531686067581177,-0.20362195372581482,0.04838335141539574,-0.5492019057273865,0.04478440433740616,0.3694359064102173,-0.42828845977783203,-0.2141583412885666,-0.282995343208313,-0.5340773463249207,-0.45234018564224243,0.4109794497489929,0.5054193139076233,0.5029265284538269,-0.6586861610412598,0.1917828917503357,-0.03416156768798828,-0.39540356397628784,-0.6982834339141846,-0.6362866759300232,0.06703908741474152,-0.16700731217861176,0.611785352230072,0.27278298139572144,0.1883162558078766,-0.19042479991912842,-0.9815675616264343
C4DBC10104F058FCC5500D61CD48746A,-0.15908163785934448,-0.00047293343232013285,-0.05010571703314781,-0.0781078189611435,-0.31764084100723267,-0.16661185026168823,0.17554323375225067,0.26198941469192505,0.22743216156959534,0.04783976823091507,0.021254098042845726,-0.28173720836639404,0.17643015086650848,0.21587657928466797,0.1956574022769928,-0.5797656178474426,0.060621969401836395,0.2115999013185501,0.19632576406002045,0.2980789542198181,-0.09313645958900452,0.2985498309135437,0.17678579688072205,0.5350651741027832,0.20398634672164917,0.31722018122673035,-0.12025719881057739,0.11618790775537491,-0.392621248960495,0.03693697229027748,-0.24780067801475525,-0.349036306142807,0.09906567633152008,0.031376682221889496,0.07558684051036835,0.08543765544891357,-0.21678969264030457,0.3144921064376831,0.08540749549865723,0.002802336821332574,0.1638435274362564,0.39889365434646606,-0.29432687163352966,-0.23601557314395905,-0.11572761833667755,-0.2866954803466797,0.11845336109399796,-0.2896224558353424,0.173418328166008,0.08111464977264404,0.17817458510398865,0.5751522183418274,0.28768792748451233,0.3118923306465149,0.012025175616145134,0.08203843235969543,-0.08843675255775452,0.0032596345990896225,0.31939855217933655,-0.08046407252550125,-0.05744032561779022,-0.3107464611530304,0.4228375554084778,0.42590948939323425,-0.0015053885290399194,-0.023826759308576584,0.14578406512737274,-0.25640207529067993,0.12146537005901337,0.3838478624820709,0.31096532940864563,0.12691190838813782,0.2505880296230316,0.015087062492966652,-0.13968466222286224,0.4023425281047821,0.08151113241910934,-0.10979265719652176,0.1377549171447754,0.2861936092376709,-0.1451488882303238,-0.07678504288196564,0.07003185153007507,0.16503417491912842,-0.2996003031730652,0.2537931501865387,0.43760475516319275,0.01244428288191557,0.1499837189912796,-0.28759339451789856,-0.08824791759252548,-0.2583341598510742,0.13553351163864136,0.07218561321496964,-0.24162979423999786,0.09234675765037537,-0.13141001760959625,0.2516859471797943,0.12294474244117737,-0.029490049928426743,0.12564830482006073,-0.02459208481013775,0.004823407158255577,0.17323541641235352,-0.24215328693389893,0.03794645890593529,0.06640951335430145,-0.23338869214057922,-0.10649753361940384,-0.36145713925361633,-0.17437231540679932,-0.22787655889987946,0.22901101410388947,0.3126530051231384,0.006376941688358784,-0.4512849450111389,0.006668549496680498,-0.22831197082996368,-0.10621514171361923,-0.36586228013038635,-0.1910894513130188,-0.11235327273607254,-0.18955202400684357,0.4204685389995575,-0.07576967775821686,0.16679790616035461,0.007686215918511152,-0.4722580015659332
C781B4CDE28609FF2D7B217671E1F110,-0.14881424605846405,-0.035919997841119766,-0.054227959364652634,-0.0562262125313282,-0.2961967885494232,-0.1361308991909027,0.16006864607334137,0.2726670503616333,0.22826789319515228,0.05782121419906616,-0.021967139095067978,-0.2894517481327057,0.20428434014320374,0.23496469855308533,0.20516666769981384,-0.506738007068634,0.05266619101166725,0.18636666238307953,0.16091565787792206,0.231336310505867,-0.10897895693778992,0.3271480202674866,0.14215277135372162,0.4697084128856659,0.1594216525554657,0.2955067753791809,-0.0896378830075264,0.10036601126194,-0.35915347933769226,0.03142289072275162,-0.2573566138744354,-0.34125015139579773,0.06509365886449814,-0.003919051960110664,0.06296572834253311,0.10383215546607971,-0.17805175483226776,0.2965908944606781,0.08303951472043991,0.01273451279848814,0.1535230576992035,0.38032642006874084,-0.26815423369407654,-0.22959424555301666,-0.09800060093402863,-0.2579629719257355,0.12771935760974884,-0.273084819316864,0.1891046166419983,0.0883140116930008,0.16282473504543304,0.4938627779483795,0.24091610312461853,0.24351876974105835,-0.0071975416503846645,0.07093580067157745,-0.11025885492563248,-0.01218209508806467,0.26481714844703674,-0.10849631577730179,-0.058048348873853683,-0.25716519355773926,0.38151001930236816,0.4093092381954193,-0.037737056612968445,-0.02854026108980179,0.1507801115512848,-0.2014950066804886,0.13832752406597137,0.3183996379375458,0.23709562420845032,0.10070593655109406,0.22748593986034393,-0.009309801273047924,-0.1109822615981102,0.36576005816459656,0.07004497200250626,-0.10752946883440018,0.1496436446905136,0.2783488929271698,-0.13390731811523438,-0.08489198237657547,0.065962053835392,0.14581291377544403,-0.28286296129226685,0.24687418341636658,0.3960390090942383,0.006869640201330185,0.10738912969827652,-0.2776530683040619,-0.059937529265880585,-0.2596000134944916,0.12166879326105118,0.06803859025239944,-0.2557797431945801,0.02852880023419857,-0.17435836791992188,0.25309666991233826,0.11953331530094147,-0.0008131655631586909,0.14355352520942688,0.026403170078992844,0.00019462822820059955,0.17574207484722137,-0.2184547781944275,0.04145157337188721,0.03291419520974159,-0.21074867248535156,-0.09328797459602356,-0.3524121940135956,-0.12153865396976471,-0.19585001468658447,0.18772609531879425,0.27927297353744507,-0.043580763041973114,-0.4097799062728882,-0.03415348380804062,-0.24658682942390442,-0.07520947605371475,-0.32851165533065796,-0.1364278495311737,-0.13225996494293213,-0.1737511307001114,0.38320526480674744,-0.097960464656353,0.16663625836372375,0.020461130887269974,-0.3858913779258728
C8EAA7653991BB8ECCBD436442F95003,-0.2472221702337265,0.12938867509365082,0.16384854912757874,0.4218006730079651,-0.35047197341918945,-0.25126636028289795,-0.1706743985414505,0.4936835765838623,-0.01808040216565132,0.20184533298015594,-0.36853599548339844,-0.1533358097076416,0.13086695969104767,0.7587913870811462,1.0688244104385376,-0.05582466721534729,0.18145766854286194,-0.11404573172330856,0.42788660526275635,0.030216403305530548,0.08172261714935303,0.38495880365371704,0.09122137725353241,0.9024938344955444,0.4091612994670868,0.33332744240760803,-0.28303518891334534,-0.18512390553951263,-0.6123278737068176,-0.13914282619953156,-0.04064954072237015,0.0257316455245018,-0.5260419249534607,-0.23997753858566284,0.4813241958618164,-0.25793835520744324,-0.4207783341407776,0.6456462740898132,-0.42954179644584656,-0.04571414738893509,0.29827532172203064,0.9168631434440613,-0.28497400879859924,-0.7618123292922974,-0.3178781569004059,-0.3619833290576935,0.07336720079183578,-0.6430185437202454,0.3484984040260315,0.11280547082424164,0.6436737179756165,0.8774092793464661,0.3807516098022461,-0.2207423597574234,-0.10742487013339996,-0.003775333520025015,-0.18703635036945343,-0.10952828079462051,0.25062301754951477,-0.4291767179965973,0.01082097552716732,-0.16474567353725433,0.5406637787818909,0.287109911441803,0.27801477909088135,-0.33045828342437744,0.3114349842071533,-0.04590273275971413,0.29586610198020935,0.20131425559520721,0.2895219326019287,-0.04103467985987663,0.5617956519126892,-0.19553537666797638,-0.42366325855255127,0.2903438210487366,-0.00670200539752841,-0.6861660480499268,0.29348888993263245,0.5938355922698975,-0.3379310369491577,0.5420292615890503,0.18172389268875122,-0.08169907331466675,-0.3882851004600525,0.0780632272362709,0.7260534763336182,-0.21516571938991547,0.019171524792909622,-0.7037824988365173,0.35687559843063354,-0.5465626120567322,0.07811509817838669,0.018519984558224678,-0.7248907089233398,-0.692574143409729,-0.22204354405403137,0.9854766130447388,0.1379893571138382,0.4252798855304718,0.24279090762138367,-0.01724858768284321,1.0030517578125,0.5718739032745361,0.09706073254346848,0.03324505314230919,-0.148659810423851,0.12356048077344894,-0.25107541680336,-0.9016846418380737,-0.16102437674999237,-0.2801821231842041,0.5546222925186157,0.28198716044425964,-0.6197705864906311,-0.4750032126903534,-0.011932894587516785,-0.6200712323188782,0.3671529293060303,-0.23432713747024536,-0.4059067368507385,0.1891503930091858,0.23750713467597961,0.5136628150939941,-0.254806786775589,0.2359873354434967,0.33424410223960876,-0.7481203675270081
